{"version":"0.5.4","metadata":{"date":{"year":2025,"month":11,"day":21,"hour":21,"minute":17,"second":2},"loudness":-20.252878189086914,"gain":0.756221238116463,"name":"JCM800 capture 3","modeled_by":"szymon","gear_type":"amp","gear_make":"tz-make","gear_model":"tz-model","tone_type":"overdrive","input_level_dbu":null,"output_level_dbu":null,"training":{"settings":{"ignore_checks":false},"data":{"latency":{"manual":null,"calibration":{"algorithm_version":1,"delays":[-698],"safety_factor":1,"recommended":-699,"warnings":{"matches_lookahead":false,"disagreement_too_high":false}}},"checks":{"version":3,"passed":true}},"validation_esr":0.004001107963544434}},"architecture":"WaveNet","config":{"layers":[{"input_size":1,"condition_size":1,"head_size":8,"channels":16,"kernel_size":3,"dilations":[1,2,4,8,16,32,64,128,256,512],"activation":"Tanh","gated":false,"head_bias":false},{"input_size":16,"condition_size":1,"head_size":1,"channels":8,"kernel_size":3,"dilations":[1,2,4,8,16,32,64,128,256,512],"activation":"Tanh","gated":false,"head_bias":true}],"head":null,"head_scale":0.02},"weights":[-0.003630096325650811,0.5193577408790588,-0.8092105984687805,-0.8083406686782837,-0.5307755470275879,0.4028517007827759,-0.04300190508365631,0.8590409159660339,-0.1359967738389969,0.223831906914711,-0.2934268116950989,0.0005339789786376059,-1.0875753164291382,-0.7312617897987366,-0.43476009368896484,-0.002625049790367484,0.09186030924320221,0.06808806955814362,-0.18668045103549957,-0.0793926790356636,0.20005172491073608,0.131223663687706,-0.02638993225991726,-0.05185306444764137,-0.043024782091379166,0.026662195101380348,-0.025371665135025978,-0.15199697017669678,-0.07741855084896088,-0.19663885235786438,-0.06601428240537643,0.10713673382997513,0.06220844015479088,-0.0595121793448925,-0.06349390000104904,-0.28163766860961914,-0.041419617831707,0.11727633327245712,0.2241191565990448,0.0864093154668808,0.039312127977609634,-0.21836145222187042,0.047813475131988525,-0.145518496632576,0.04534628614783287,-0.07118566334247589,0.09734778106212616,-0.06948763132095337,-0.06853827834129333,0.022492263466119766,0.043160367757081985,0.14301393926143646,0.06495355814695358,-0.14089436829090118,0.07852562516927719,-0.07553010433912277,-0.1315976083278656,-0.12868401408195496,-0.09224991500377655,-0.2306075394153595,0.05258370190858841,0.0900002047419548,-0.0970667377114296,0.05127720534801483,-0.07808123528957367,-0.13356178998947144,-0.057756517082452774,0.14830873906612396,-0.02782009169459343,0.15685220062732697,-0.2056169956922531,0.0730886235833168,0.04579809680581093,0.011580527760088444,0.24774526059627533,0.1141853928565979,-0.0704805850982666,0.001853310619480908,0.0003486927307676524,0.017990605905652046,-0.24965283274650574,0.1507241278886795,0.030873609706759453,-0.018698792904615402,0.008190215565264225,0.07570329308509827,-0.1469876617193222,-0.05180446058511734,-0.029932772740721703,0.045196812599897385,0.038460444658994675,0.16081637144088745,-0.017763616517186165,0.06932039558887482,-0.23531474173069,0.026198212057352066,0.05009332671761513,0.00676490506157279,-0.00794037152081728,-0.027424713596701622,0.03341738507151604,0.2211739420890808,-0.07621454447507858,-0.13635489344596863,-0.01245978381484747,-0.013499731197953224,-0.20228536427021027,0.012874552048742771,-0.02110873907804489,-0.12080544978380203,-0.1062493696808815,0.09640125930309296,-0.11285372078418732,0.14566601812839508,0.12349127978086472,-0.09801334887742996,0.10542193800210953,-0.05559317022562027,-0.016339758411049843,-0.116220623254776,0.11359070986509323,-0.02175024151802063,-0.2170112580060959,0.12808312475681305,-0.16781927645206451,-0.23432661592960358,0.03216541185975075,-0.04344843327999115,0.09440679848194122,-0.19075322151184082,-0.016300547868013382,-0.11822228878736496,0.0003263647959101945,0.027761757373809814,0.2535749673843384,-0.07477510720491409,-0.002659818157553673,-0.14960919320583344,0.12066593021154404,0.11815035343170166,0.2776808440685272,0.02429368533194065,0.10469433665275574,-0.157736673951149,-0.060372475534677505,-0.036647796630859375,0.04630926623940468,0.01068477239459753,-0.10627957433462143,-0.2607574462890625,-0.07558737695217133,-0.15390938520431519,-0.17736230790615082,0.13918624818325043,0.04466695338487625,-0.28658297657966614,0.15247485041618347,-0.11676455289125443,-0.023618631064891815,-0.007616712711751461,-0.003137049963697791,-0.12661011517047882,-0.07636827230453491,-0.14270062744617462,0.0075658168643713,0.007043143268674612,-0.03995132073760033,0.02975812554359436,-0.1343478411436081,0.01115590799599886,0.09657148271799088,-0.06369298696517944,0.14887240529060364,0.021686039865016937,-0.14396868646144867,0.07369417697191238,0.017806751653552055,-0.049798350781202316,0.08768744766712189,-0.13932988047599792,-0.04868044704198837,-0.05475326627492905,0.1285376250743866,0.04628275707364082,0.06761123985052109,0.01648113876581192,-0.07322405278682709,-0.04754137620329857,-0.09353559464216232,0.09383318573236465,0.13630761206150055,0.07296758145093918,-0.11821714043617249,-0.006935090757906437,-0.09381471574306488,-0.06490565836429596,-0.06017078086733818,0.02241332270205021,-0.09117329865694046,0.018628956750035286,-0.021296527236700058,0.08680998533964157,-0.08671284466981888,-0.12537194788455963,-0.09284474700689316,0.10377753525972366,-0.14901110529899597,0.09931109100580215,0.07109033316373825,-0.10531782358884811,0.028743887320160866,0.04657907783985138,-0.12166149914264679,-0.1423376500606537,-0.05552245303988457,0.16411186754703522,-0.0006153489812277257,-0.14258228242397308,0.25933778285980225,-0.0023100560065358877,-0.08133834600448608,0.287392258644104,0.16195207834243774,0.08200548589229584,-0.26403719186782837,-0.03660600259900093,-0.20990708470344543,0.1359521746635437,0.03710944578051567,0.040003009140491486,-0.1433151662349701,0.007257654797285795,-0.07348792999982834,0.266446977853775,0.1691669076681137,-0.025387434288859367,-0.07524736225605011,-0.19980143010616302,-0.12219748646020889,0.18650630116462708,0.14642010629177094,0.029346991330385208,0.043960731476545334,0.06239427253603935,0.011728542856872082,0.005591587163507938,0.2186749428510666,-0.18378770351409912,0.14636370539665222,0.0890594944357872,-0.13639870285987854,0.1608968824148178,0.22575049102306366,-0.10635118186473846,-0.13222934305667877,-0.0031926403753459454,-0.11074113845825195,0.2008848786354065,-0.09604787081480026,-0.11686940491199493,-0.027516206726431847,0.0856657400727272,0.08533676713705063,0.050090812146663666,0.04444906860589981,-0.03177829831838608,-0.09626539796590805,0.03561476990580559,0.1344030350446701,-0.01921374537050724,-0.07020264863967896,-0.08729163557291031,-0.08516727387905121,0.02870984748005867,-0.02745160274207592,-0.2035757601261139,0.17365707457065582,-0.10434930771589279,0.044111572206020355,0.048038139939308167,0.03735331445932388,-0.15244194865226746,-0.09172604233026505,0.09993709623813629,0.0824858546257019,0.11467797309160233,-0.03799465671181679,-0.01910775527358055,-0.027199000120162964,0.03884771093726158,-0.1378888636827469,0.03392500802874565,0.05765872076153755,-0.0621960274875164,-0.04017775505781174,-0.07515140622854233,0.04130488261580467,-0.11440568417310715,0.07041839510202408,-0.10747126489877701,-0.07255741208791733,-0.0003477541031315923,-0.06922129541635513,-0.04348928853869438,0.017618225887417793,-0.01765071414411068,0.05298684164881706,0.05699639767408371,0.15942434966564178,-0.1302148401737213,-0.13016070425510406,-0.13053490221500397,0.1567801833152771,-0.056910235434770584,-0.04965456947684288,0.20440250635147095,-0.08341437578201294,-0.10552665591239929,0.1720358431339264,0.015506620518863201,0.11031118780374527,-0.09973110258579254,-0.09993709623813629,-0.122159443795681,0.20870967209339142,0.13981369137763977,0.19174110889434814,-0.08985328674316406,0.07874131947755814,-0.17213870584964752,0.010095677338540554,-0.12257317453622818,0.24583818018436432,-0.023639321327209473,-0.10734324157238007,-0.04971352219581604,0.22816739976406097,0.217151939868927,0.07630854845046997,0.15924586355686188,-0.042568057775497437,-0.15758825838565826,0.2265244573354721,0.07335645705461502,-0.19287557899951935,0.23693227767944336,0.0616527758538723,-0.02600770629942417,0.020775292068719864,-0.019900396466255188,-0.058218274265527725,0.07725651562213898,0.02944975346326828,0.24897582828998566,0.17380857467651367,0.04899619147181511,-0.1203136146068573,0.2521395981311798,-0.09234775602817535,0.10493500530719757,-0.28265178203582764,-0.130473330616951,-0.03964440897107124,-0.07089956849813461,0.08951359242200851,0.21063880622386932,-0.07835131138563156,-0.14488883316516876,-0.179005965590477,0.16853192448616028,-0.06275713443756104,0.13504302501678467,-0.3114619553089142,-0.07835469394922256,-0.21099349856376648,0.10759111493825912,0.13394063711166382,0.1818680465221405,-0.09115202724933624,0.10469099134206772,0.06949418783187866,0.15039484202861786,0.06851217895746231,0.19161014258861542,-0.14234967529773712,0.15422730147838593,0.06020544841885567,-0.02323242835700512,-0.041085973381996155,0.14353063702583313,-0.17239873111248016,-0.02419164590537548,-0.00845192652195692,-0.26889219880104065,-0.10397867858409882,0.16607169806957245,-0.08473603427410126,-0.016251077875494957,-0.04335326701402664,0.061176326125860214,0.09307084232568741,-0.003912451211363077,-0.11170722544193268,0.19439660012722015,0.1535874903202057,-0.17291708290576935,0.07297062128782272,0.01097666285932064,0.005532119423151016,0.017313379794359207,-0.18018905818462372,0.03826010972261429,0.05951084941625595,-0.09316055476665497,-0.03087780252099037,0.014293682761490345,0.058375924825668335,-0.10208621621131897,-0.028359564021229744,0.036312002688646317,0.12397540360689163,-0.02335168421268463,0.10714291036128998,0.007136530242860317,0.029379626736044884,-0.21448306739330292,0.0741056427359581,-0.04961365461349487,0.028868189081549644,-0.01866740733385086,-0.16537897288799286,-0.04088013991713524,0.19386182725429535,0.009110999293625355,-0.12030205875635147,-0.023080404847860336,-0.03450564295053482,-0.2105448693037033,0.1328195035457611,-0.19509774446487427,-0.23751063644886017,-0.07807940244674683,-0.09091459959745407,0.0020247481297701597,-0.07200722396373749,0.09297005087137222,-0.05573591589927673,0.11769010871648788,0.0719667449593544,-0.20231947302818298,0.24793416261672974,0.17742018401622772,0.17957629263401031,-0.13244156539440155,-0.19372572004795074,0.08248201757669449,0.20974615216255188,-0.03373399376869202,-0.1554373800754547,0.16688397526741028,-0.2538028359413147,-0.09729275107383728,0.2402113378047943,-0.00027174389106221497,0.09200029820203781,-0.13102106750011444,-0.15810035169124603,-0.09726539254188538,0.05677038058638573,0.05869952216744423,0.10298813879489899,-0.06180509924888611,-0.05802342668175697,-0.057448986917734146,0.23825623095035553,-0.03567470610141754,-0.08837661147117615,-0.12275324016809464,-0.18348149955272675,0.031522445380687714,0.09176153689622879,-0.10452637821435928,-0.07939539849758148,0.1826443076133728,-0.11826710402965546,0.07105572521686554,0.29643112421035767,-0.024210404604673386,-0.03392668440937996,0.16151683032512665,-0.135676771402359,-0.022029904648661613,0.26911789178848267,-0.13581803441047668,0.08186201006174088,0.08616750687360764,0.037859320640563965,0.2049638032913208,0.1535111516714096,-0.2013765424489975,-0.3311382234096527,0.39515551924705505,0.39501848816871643,0.2871544361114502,-0.1658536046743393,0.2599524259567261,0.25398150086402893,-0.23740628361701965,0.3032764494419098,0.2591119408607483,-0.3441712260246277,-0.26118212938308716,-0.25647756457328796,0.24964550137519836,0.3950045108795166,0.18530651926994324,-0.3717595636844635,-0.31945309042930603,-0.12187902629375458,0.27881813049316406,0.38558581471443176,0.15281318128108978,-0.2486867904663086,-0.4177929162979126,-0.26928216218948364,0.20573310554027557,0.4549315273761749,0.1568240523338318,-0.28337815403938293,0.03621717542409897,0.11180667579174042,-0.03654784709215164,0.22745604813098907,0.09188326448202133,-0.40508922934532166,0.3324429392814636,0.16768255829811096,-0.38885965943336487,0.2714307904243469,0.22840772569179535,-0.36041778326034546,0.22059577703475952,0.09078691154718399,-0.2051248401403427,-0.028097370639443398,-0.03979136422276497,-0.050460152328014374,0.1513657122850418,-0.17475838959217072,-0.022831663489341736,-0.2659842073917389,-0.01335984282195568,0.305250346660614,-0.23301370441913605,0.1479230374097824,0.1550849825143814,-0.17666743695735931,0.09030792862176895,0.25597769021987915,0.157912015914917,-0.2556232213973999,-0.24759742617607117,-0.23661580681800842,0.2272660881280899,0.032524608075618744,0.2707986831665039,-0.15663999319076538,-0.19074253737926483,-0.051413264125585556,0.19676123559474945,0.2613579332828522,0.2182232141494751,-0.1676686406135559,-0.24562600255012512,-0.14248977601528168,0.24713709950447083,0.10223380476236343,-0.20822468400001526,0.17749494314193726,0.2617790699005127,-0.1783742606639862,0.003510315902531147,0.0359562449157238,-0.10241667926311493,0.11138966679573059,0.09294407069683075,-0.10341180860996246,0.17801229655742645,0.27293142676353455,0.00817753467708826,-0.07605816423892975,-0.002297306200489402,-0.0984814465045929,0.2120688259601593,0.20624209940433502,0.08216523379087448,-0.17676571011543274,0.0601971335709095,0.11776915192604065,0.18220750987529755,-0.048520833253860474,-0.0752422958612442,-0.046992357820272446,0.21231180429458618,-0.08424290269613266,-0.014095302671194077,0.14894232153892517,-0.04329580068588257,-0.12129465490579605,-0.0862978845834732,-0.10474793612957001,-0.12497981637716293,0.07762773334980011,-0.04626576974987984,-0.0034960550256073475,0.049300458282232285,0.0301619041711092,0.04964374750852585,0.16012078523635864,0.04084130749106407,-0.11299064010381699,0.07426020503044128,0.01595272868871689,-0.09122104942798615,0.023906109854578972,-0.12138958275318146,0.13761381804943085,-0.0020148041658103466,-0.1503317505121231,0.04509845748543739,0.1675037294626236,0.01742677390575409,0.09815306961536407,0.0885692834854126,0.03378278762102127,0.014951642602682114,0.012697640806436539,-0.07776276767253876,-0.019089259207248688,0.16087116301059723,-0.07939746230840683,0.05026526004076004,0.13220670819282532,-0.05392356961965561,-0.10843682289123535,0.15755228698253632,-0.01657712832093239,0.14196355640888214,-0.1294621229171753,0.030866147950291634,0.09817567467689514,-0.07526622712612152,0.1854451298713684,-0.08069290965795517,-0.14732633531093597,-0.12831497192382812,0.007240449544042349,0.1609930694103241,-0.031638141721487045,0.0361177995800972,-0.11225162446498871,-0.0991915762424469,0.08332937210798264,-0.09430524706840515,0.057824067771434784,0.1336255818605423,-0.0769437924027443,0.05224623903632164,-0.059072356671094894,0.14508047699928284,-0.07436110824346542,-0.0038763065822422504,-0.05357909947633743,0.03788037598133087,0.028572048991918564,0.08100204169750214,0.046381305903196335,0.017171187326312065,0.08249494433403015,0.02684381604194641,0.14783169329166412,-0.11395049840211868,0.0481826476752758,0.011321041733026505,0.04348021745681763,0.13123586773872375,-0.06734660267829895,-0.17715050280094147,-0.0349060520529747,-0.09911346435546875,-0.06056906282901764,0.0020750625990331173,0.277905136346817,0.05253652483224869,-0.08131254464387894,-0.3254244327545166,0.18031443655490875,-0.2009173184633255,-0.1581796407699585,0.1027759537100792,-0.15973566472530365,-0.14341212809085846,-0.035520121455192566,0.12634332478046417,0.10276882350444794,-0.11089157313108444,-0.018243983387947083,-0.03400678560137749,0.08910349011421204,0.18788063526153564,0.17496426403522491,-0.15105901658535004,-0.19036538898944855,-0.3047020137310028,0.26622387766838074,0.04657045379281044,0.18465003371238708,-0.05450228601694107,0.009294889867305756,-0.06095261126756668,0.21033522486686707,-0.08515604585409164,-0.037958040833473206,-0.008844112977385521,-0.1784019023180008,-0.16016365587711334,0.2173612266778946,-0.20881688594818115,-0.10395120829343796,0.008959180675446987,-0.11799301952123642,-0.0722857415676117,0.053153421729803085,-0.08470237255096436,-0.17834724485874176,0.18365858495235443,0.01874331198632717,-0.08698024600744247,0.10079416632652283,-0.1758735030889511,-0.25380808115005493,0.04559449851512909,0.19614432752132416,0.10489069670438766,0.03248709812760353,0.20159493386745453,0.238655686378479,-0.11163008958101273,0.062337201088666916,0.10000185668468475,-0.16137628257274628,-0.07792416960000992,-0.033873844891786575,0.16857752203941345,0.0518140010535717,0.1690165251493454,-0.1488245576620102,0.027104346081614494,-0.206698477268219,-0.06314025074243546,0.07924246042966843,0.2211723029613495,-0.20093145966529846,0.058475468307733536,-0.08492567390203476,-0.053857412189245224,0.04610201716423035,0.2666257619857788,-0.16009315848350525,-0.035857610404491425,0.1018836572766304,-0.13724355399608612,0.16050980985164642,0.22155871987342834,0.05315331369638443,-0.012916402891278267,0.288141667842865,-0.12288551032543182,0.2228047400712967,0.004646785091608763,-0.16927815973758698,0.12757258117198944,0.006046967580914497,-0.013470026664435863,-0.10182920843362808,-0.10910536348819733,-0.08996707201004028,-0.14511056244373322,0.054829057306051254,0.011804545298218727,-0.04224560037255287,-0.04059896990656853,0.08979789167642593,0.1353931874036789,-0.2160295844078064,0.0089650209993124,0.019213879480957985,-0.04048878699541092,-0.07232580333948135,0.029044291004538536,0.47013282775878906,-0.4157051146030426,0.744840681552887,-0.7031666040420532,-0.11725497245788574,0.9128716588020325,0.8923590779304504,-0.39349737763404846,0.12460699677467346,-0.08942744135856628,-0.17655624449253082,-0.5167194604873657,0.18858587741851807,-0.6864281296730042,0.09144730865955353,0.46170052886009216,-0.2096133828163147,0.27765366435050964,-0.1535196453332901,0.12536604702472687,0.5213055610656738,-0.32283392548561096,-0.0008617848507128656,-0.07591558247804642,-0.04071507975459099,0.12780636548995972,-0.32844051718711853,0.26049742102622986,0.11428193747997284,0.034463126212358475,0.27736297249794006,-0.13260488212108612,-0.02676023729145527,-0.10008984059095383,-0.23421917855739594,0.1208014264702797,0.04612123593688011,-0.0071882400661706924,-0.13856159150600433,0.11578870564699173,-0.05461059883236885,0.0952034667134285,0.08576777577400208,0.04477192461490631,0.022813966497778893,-0.06863940507173538,-0.09449975937604904,0.29499557614326477,0.06148355081677437,0.10881377011537552,0.09521117806434631,0.208641916513443,-0.24741968512535095,-0.0481141060590744,0.15200471878051758,-0.12495188415050507,-0.02065305970609188,-0.2549887001514435,0.34089210629463196,-0.36447080969810486,0.1019517257809639,0.2719019949436188,0.016692442819476128,0.023146335035562515,0.2077595740556717,-0.18048708140850067,0.013470402918756008,-0.24297505617141724,-0.011391685344278812,0.047304779291152954,-0.05493399500846863,-0.09974795579910278,-0.11599039286375046,0.20229843258857727,-0.19785737991333008,-0.03728185594081879,0.047458045184612274,0.1480524241924286,-0.04741567000746727,-0.13275733590126038,-0.2179318219423294,-0.21318480372428894,-0.2986210882663727,0.23371315002441406,0.21907773613929749,0.040975041687488556,0.02315473183989525,-0.1783326119184494,0.06596022099256516,0.2766316533088684,-0.2240317314863205,0.26414576172828674,-0.02819080650806427,0.18100814521312714,-0.21427427232265472,0.08731350302696228,-0.1274218112230301,-0.019153550267219543,0.23932240903377533,0.02235059067606926,0.07576051354408264,0.3368181586265564,0.37073808908462524,0.10935857146978378,0.23044361174106598,-0.037586767226457596,-0.17970751225948334,-0.1832350641489029,-0.0263576228171587,-0.22900322079658508,0.3001829981803894,-0.0909218043088913,0.0445106066763401,0.23265834152698517,0.16460828483104706,0.23624469339847565,-0.01833101361989975,-0.339136004447937,-0.03959594666957855,0.21688447892665863,-0.057807669043540955,-0.21837882697582245,-0.18856553733348846,0.390226274728775,0.2186896950006485,-0.06517988443374634,0.057204920798540115,-0.026213200762867928,0.2098405957221985,0.10011990368366241,0.28996598720550537,-0.21568626165390015,-0.19884468615055084,0.15013088285923004,0.20546916127204895,0.056810956448316574,0.10668952018022537,-0.22342778742313385,0.22332924604415894,-0.20794956386089325,0.10102200508117676,-0.12945328652858734,-0.12812861800193787,0.1397673487663269,-0.15397988259792328,0.01720980554819107,-0.3595966398715973,-0.1708502471446991,0.20251652598381042,-0.05061529949307442,-0.26120710372924805,0.15297754108905792,-0.3010040819644928,-0.2886446714401245,0.305240273475647,0.10845950990915298,0.07560841739177704,-0.050106439739465714,-0.18071603775024414,0.29538536071777344,-0.24824531376361847,-0.008748599328100681,0.17279545962810516,-0.30614161491394043,-0.08439572155475616,-0.096195749938488,0.1549537479877472,-0.24483445286750793,0.12741036713123322,0.3438667058944702,-0.14749689400196075,0.22429333627223969,0.17647992074489594,0.1099211648106575,0.018643222749233246,-0.15818703174591064,0.11172396689653397,0.24098294973373413,-0.2813552916049957,0.1734306961297989,-0.039004627615213394,-0.22201818227767944,0.07226570695638657,-0.09722092002630234,0.01893988624215126,-0.13989610970020294,-0.23457451164722443,0.017164405435323715,-0.04104573279619217,0.1768498420715332,-0.08134831488132477,0.27867770195007324,0.11222688108682632,-0.1220344826579094,0.29217448830604553,-0.079617440700531,-0.047701455652713776,0.06112472712993622,0.0771283358335495,-0.04680083319544792,0.018718216568231583,-0.18159426748752594,0.19151842594146729,-0.32093092799186707,0.004751752130687237,0.0474027581512928,-0.11668414622545242,-0.14514406025409698,-0.10065513849258423,0.00658344104886055,-0.004820429254323244,0.1091199591755867,0.15194150805473328,-0.2867015302181244,-0.06964338570833206,0.06754555553197861,0.1897936463356018,0.010069546289741993,-0.24597445130348206,0.17552725970745087,0.13512414693832397,-0.0792510136961937,-0.1256258487701416,0.10107935965061188,-0.05729253590106964,-0.10989484190940857,-0.2245543748140335,0.22752845287322998,-0.01895301416516304,0.08380158245563507,0.07815985381603241,0.10146322846412659,-0.12561215460300446,-0.1478762924671173,0.09679990261793137,0.09610389173030853,-0.16386312246322632,0.06434132158756256,-0.3442855775356293,0.3195815086364746,-0.18675346672534943,0.273849219083786,-0.1191769391298294,-0.09988954663276672,0.10999862104654312,0.07919996976852417,0.12845811247825623,0.24107158184051514,-0.2862338423728943,0.09160596132278442,0.018263332545757294,-0.11767487972974777,0.17011208832263947,0.2229362577199936,-0.3291374742984772,0.07221008092164993,0.08708149194717407,0.07504566758871078,0.08839351683855057,-0.04518357664346695,-0.0421534962952137,0.10999070852994919,0.019062116742134094,0.2064940482378006,-0.12893609702587128,-0.12601548433303833,0.01997312717139721,-0.15488208830356598,0.09986615926027298,0.2241450846195221,-0.08818095177412033,0.030820777639746666,0.12317758053541183,-0.15795934200286865,0.1751437932252884,-0.09433385729789734,-0.21119561791419983,-0.06050291284918785,0.11704663187265396,0.014520559459924698,0.04090259224176407,-0.10296063125133514,0.03375024348497391,0.04112299904227257,0.04624141752719879,0.10717565566301346,0.05846831202507019,0.020493552088737488,0.10736072808504105,-0.07061842083930969,0.0006909309886395931,0.050585463643074036,-0.07187076658010483,-0.06367392092943192,0.013039447367191315,0.0710344910621643,-0.051392704248428345,-0.12708434462547302,-0.029437774792313576,0.03400072827935219,0.03103410080075264,-0.008485885336995125,0.05199113115668297,0.04377645626664162,-0.2568376958370209,0.23197180032730103,-0.08553904294967651,-0.2100924253463745,0.0641285851597786,-0.11637677252292633,-0.21692641079425812,-0.07986775785684586,0.018597327172756195,0.15700595080852509,-0.23429371416568756,-0.20506086945533752,-0.0898023173213005,-0.02852550335228443,-0.08452628552913666,0.1329265832901001,-0.1295301914215088,-0.14545448124408722,-0.24768398702144623,0.1624712198972702,0.015747636556625366,0.10805564373731613,-0.07880900055170059,-0.017357464879751205,0.15944209694862366,-0.12696638703346252,-0.01770487055182457,0.23984314501285553,-0.02928546443581581,0.06010207161307335,-0.037986334413290024,-0.21755610406398773,0.0029759095050394535,0.12863412499427795,0.12108083814382553,-0.12939707934856415,0.085535429418087,0.11948973685503006,-0.17576004564762115,-0.17965011298656464,0.1846921294927597,-0.1421544998884201,-0.030584042891860008,-0.17398960888385773,0.02798454836010933,-0.12250418215990067,0.09496236592531204,-0.14746199548244476,-0.0458342507481575,-0.07000366598367691,0.26548558473587036,0.025816066190600395,-0.03247154876589775,0.1337040662765503,0.06685571372509003,0.02915610745549202,-0.16409848630428314,0.0071196225471794605,0.020405640825629234,0.18860793113708496,0.06675560772418976,-0.19347631931304932,0.06018839403986931,-0.09691370278596878,0.014947894029319286,-0.20353452861309052,-0.06801608949899673,-0.00006024572212481871,-0.1393038034439087,-0.1295587420463562,-0.0019489271799102426,-0.04197525605559349,0.05412111431360245,0.049107395112514496,-0.06994958966970444,-0.11083675175905228,0.04158812016248703,-0.1408228874206543,0.07935183495283127,-0.04219784960150719,-0.23956359922885895,-0.24018806219100952,-0.06993397325277328,0.05281729996204376,0.15467238426208496,-0.15845800936222076,-0.12039783596992493,-0.046149756759405136,-0.1241636723279953,0.2145407497882843,0.04827006906270981,0.051972392946481705,0.05305415764451027,-0.07279222458600998,0.09165606647729874,0.13272520899772644,0.1832781434059143,0.26666563749313354,0.007709755562245846,-0.2619644105434418,-0.08163997530937195,0.0388127863407135,0.014821372926235199,0.18616345524787903,-0.19956307113170624,-0.23874250054359436,-0.24888262152671814,0.06417914479970932,0.1530562937259674,0.10564864426851273,-0.23300418257713318,-0.2529037594795227,-0.01964082382619381,0.2587350606918335,0.14307574927806854,0.20262590050697327,-0.04099003225564957,-0.13184452056884766,-0.13076935708522797,-0.18569816648960114,-0.18668131530284882,-0.13306067883968353,-0.2755304276943207,-0.09214618057012558,-0.10773992538452148,0.07834414392709732,0.3047168254852295,0.19645462930202484,-0.06034212186932564,-0.12998968362808228,0.013278746046125889,-0.11023396998643875,-0.0533849261701107,-0.04197237640619278,0.20391516387462616,0.023496193811297417,-0.11725808680057526,0.1164885088801384,0.15970508754253387,-0.030610473826527596,0.023331770673394203,-0.10656490921974182,-0.07543880492448807,-0.18503233790397644,0.11155840009450912,0.03592860326170921,0.08444209396839142,0.10022465139627457,0.05468841269612312,-0.26286399364471436,-0.005593814421445131,0.04565577208995819,0.1862315684556961,-0.17377111315727234,0.03105219453573227,0.05488833039999008,-0.14754728972911835,0.07380420714616776,0.22529539465904236,-0.047290362417697906,0.03259129449725151,0.06297203153371811,0.10615725070238113,0.2412375956773758,0.2439718395471573,0.196169912815094,-0.010709616355597973,0.17932967841625214,-0.1409997045993805,-0.10676886141300201,0.05339901149272919,-0.03379804641008377,0.10473676770925522,0.06455641984939575,0.0550493560731411,0.013532034121453762,-0.0962817594408989,-0.07465092837810516,0.0992175042629242,0.09119218587875366,0.10932794958353043,-0.14249342679977417,-0.04055749624967575,0.10317143052816391,-0.03691721335053444,-0.19744011759757996,-0.06197407469153404,0.10249745100736618,-0.06621376425027847,-0.13496489822864532,-0.12152586877346039,-0.13119040429592133,0.2031858116388321,-0.10940752178430557,0.1102539598941803,-0.16150952875614166,0.12947751581668854,0.03528400510549545,0.280647873878479,0.06437642872333527,0.1467483788728714,0.05307455733418465,-0.06716251373291016,-0.14703769981861115,-0.17999058961868286,0.040191374719142914,0.16080361604690552,-0.21171903610229492,0.04282554239034653,-0.18063417077064514,0.24053354561328888,-0.028366941958665848,-0.17073525488376617,-0.25014010071754456,0.1607152372598648,0.06304752826690674,-0.018495729193091393,0.0076530203223228455,0.020372016355395317,-0.14531689882278442,-0.12971742451190948,0.10911981016397476,0.10248319804668427,-0.12281602621078491,0.04389165714383125,-0.04151668772101402,0.005472875665873289,-0.21399417519569397,0.09289062023162842,-0.1701107770204544,-0.0093390429392457,0.03675154969096184,-0.015442649833858013,-0.05495396628975868,-0.03845871239900589,0.11020884662866592,-0.06283239275217056,0.07512975484132767,-0.09513583034276962,0.09692692756652832,-0.2684052288532257,0.17670303583145142,0.13100337982177734,-0.1956627517938614,0.068577840924263,0.06580079346895218,-0.26301905512809753,0.2374768853187561,0.1461256891489029,0.24127596616744995,-0.20327766239643097,0.0986921563744545,-0.16574953496456146,0.09127142280340195,0.0754706859588623,0.25833311676979065,-0.10530036687850952,0.13130944967269897,-0.3343283236026764,0.30105459690093994,0.14204160869121552,0.21031315624713898,0.02198651060461998,-0.01025410182774067,-0.026273339986801147,0.045683056116104126,-0.027583401650190353,0.2553307116031647,-0.2650802731513977,-0.032100457698106766,0.039685435593128204,-0.08885220438241959,0.0021633533760905266,0.12830349802970886,-0.1048920601606369,0.0517449751496315,0.20332659780979156,-0.0567115843296051,-0.08424966037273407,-0.09936988353729248,0.09428434073925018,0.22684131562709808,0.14888156950473785,0.033922646194696426,-0.04982363432645798,0.24770499765872955,-0.0071953763253986835,0.19071738421916962,-0.12785066664218903,0.26937803626060486,0.08319514989852905,-0.03078397549688816,-0.098574697971344,-0.04204332455992699,-0.1489122360944748,0.09941764175891876,-0.0383157804608345,-0.04143001511693001,-0.23682543635368347,0.1051398366689682,0.0697965919971466,0.05827094614505768,0.009713390842080116,0.13381017744541168,-0.10239794850349426,0.055826712399721146,-0.18780198693275452,0.23155562579631805,0.08342249691486359,0.2658959627151489,0.010968253947794437,-0.03330734744668007,0.10800965875387192,-0.19829076528549194,-0.14621055126190186,0.10659746825695038,-0.10629362612962723,-0.018526125699281693,-0.08866404742002487,0.08207683265209198,-0.17702564597129822,-0.10928451269865036,0.058222319930791855,0.08608372509479523,-0.0338226743042469,-0.08242642134428024,-0.10805101692676544,-0.01006580051034689,0.14602382481098175,-0.0025092680007219315,-0.09750447422266006,-0.058984722942113876,0.03172247111797333,-0.17446745932102203,-0.062310658395290375,0.08094190806150436,0.041561298072338104,-0.13569903373718262,0.02536904253065586,-0.18714289367198944,0.039817072451114655,-0.020613331347703934,0.05868005380034447,-0.11478090286254883,0.01796446181833744,-0.20937374234199524,0.1694554090499878,0.12111542373895645,0.1182236447930336,-0.1023147776722908,0.15267136693000793,-0.21998316049575806,0.10326044261455536,-0.08960436284542084,0.1270076185464859,-0.11062318086624146,-0.04582904651761055,-0.14024686813354492,0.016951732337474823,-0.14832927286624908,-0.07584168016910553,-0.11647596210241318,0.08655054122209549,0.012822605669498444,0.1890547126531601,-0.19833645224571228,0.03371988609433174,-0.04133518412709236,0.19529186189174652,0.0814276784658432,-0.062155358493328094,-0.12979920208454132,-0.2360440492630005,-0.1162758618593216,0.2007986456155777,0.18576058745384216,0.1571219116449356,0.12509159743785858,0.073912113904953,-0.08091772347688675,0.18180972337722778,0.07765307277441025,0.055841799825429916,-0.12490357458591461,0.11983481049537659,-0.052749961614608765,0.04596465826034546,-0.04981829971075058,0.022774050012230873,-0.21604931354522705,-0.12670765817165375,0.02390613779425621,0.042983341962099075,-0.1551048308610916,0.1805328130722046,-0.06308143585920334,0.08830711245536804,-0.13455291092395782,0.052574049681425095,-0.055450987070798874,-0.024820325896143913,-0.00912127923220396,0.020686719566583633,0.06256221234798431,0.09034612774848938,0.1758948266506195,0.11601059138774872,0.057498034089803696,-0.050763968378305435,-0.07830135524272919,0.058263491839170456,-0.09213274717330933,0.04764096066355705,-0.06496385484933853,-0.0633000060915947,-0.21536269783973694,0.08907517790794373,0.17464391887187958,-0.017763996496796608,-0.09619399905204773,0.11653531342744827,0.1577432006597519,-0.10582166910171509,-0.00688310107216239,-0.11278149485588074,-0.029008785262703896,0.17216256260871887,-0.006390122231096029,0.10629530996084213,0.09442614018917084,-0.03963059186935425,-0.07626958936452866,-0.22297249734401703,0.13919931650161743,0.003698311746120453,0.03748849406838417,0.07033897191286087,-0.09552007913589478,-0.12431143969297409,0.20064756274223328,-0.06177225336432457,0.209904283285141,-0.06378041952848434,-0.09959332644939423,-0.1087450161576271,0.12795335054397583,-0.10166573524475098,0.18804359436035156,0.04726998507976532,0.15399041771888733,-0.17968808114528656,0.14865979552268982,-0.08359914273023605,0.026864971965551376,-0.1857731193304062,-0.13664217293262482,0.08029846847057343,-0.00572613812983036,-0.08579766005277634,-0.0463089793920517,0.025702783837914467,0.06884371489286423,-0.013811743818223476,-0.016502851620316505,-0.015201685018837452,0.05586908385157585,-0.11566802114248276,-0.032362200319767,0.13043451309204102,-0.07692360877990723,-0.12064401805400848,-0.08295275270938873,0.07266055792570114,-0.1731705218553543,-0.09713269770145416,-0.012134449556469917,-0.020290611311793327,-0.06264931708574295,-0.13990327715873718,-0.012469850480556488,0.22614657878875732,-0.06306752562522888,0.05511459335684776,0.09457004070281982,0.19035214185714722,-0.07056374102830887,0.25691327452659607,0.04399825260043144,-0.003951212391257286,-0.0368504635989666,0.19365839660167694,0.015824267640709877,-0.09790066629648209,-0.03183859959244728,0.1840517669916153,-0.2138562798500061,0.001198920770548284,-0.13603058457374573,0.2107909768819809,-0.2606838345527649,0.020813293755054474,-0.1384333372116089,0.03731383755803108,0.0074774036183953285,-0.11248115450143814,0.027514860033988953,0.03294098749756813,-0.06843274086713791,-0.04561154544353485,-0.11213160306215286,-0.12339939922094345,0.012537320144474506,-0.07394320517778397,-0.2707825303077698,-0.19606976211071014,0.0755644142627716,-0.1720677614212036,-0.12052913010120392,-0.10662160068750381,-0.04442191496491432,0.014764266088604927,-0.008156638592481613,0.12456084787845612,-0.015433618798851967,0.06899052858352661,-0.15785764157772064,-0.07305234670639038,0.08161811530590057,0.6056641936302185,0.06379383057355881,-0.2262677699327469,-0.21185004711151123,0.10902616381645203,0.22934018075466156,0.5426400303840637,0.09990178048610687,0.10096275061368942,-0.6187851428985596,-0.16330622136592865,-0.19146396219730377,0.3842037320137024,0.005345780868083239,-0.0907059833407402,-0.36923542618751526,-0.10179472714662552,-0.0488450787961483,0.6159731149673462,0.11054784804582596,-0.23145216703414917,-0.5183311700820923,-0.025843750685453415,0.04885353147983551,-0.34824153780937195,-0.21291381120681763,0.031896159052848816,-0.4517098665237427,-0.2385503649711609,0.003910811617970467,0.20530351996421814,0.190080463886261,-0.09042783826589584,-0.10727757215499878,-0.11348142474889755,0.2250826209783554,0.010103672742843628,0.08699814975261688,0.11182333528995514,-0.0439138226211071,0.045884788036346436,-0.048221878707408905,0.03656787797808647,-0.06352338194847107,0.16532154381275177,-0.25387537479400635,-0.031166383996605873,-0.11210887879133224,0.16772346198558807,-0.05508754029870033,-0.05977023392915726,-0.20723764598369598,0.00570935383439064,-0.11871526390314102,0.22949321568012238,-0.08030623942613602,-0.0436568558216095,-0.17277489602565765,0.31794849038124084,-0.06491869688034058,0.20841479301452637,-0.2130190134048462,0.15189850330352783,-0.15548884868621826,0.21367841958999634,0.12396341562271118,0.24185870587825775,-0.2160382717847824,0.04420400410890579,-0.4027189016342163,0.21850939095020294,-0.011337067931890488,-0.20466399192810059,-0.03335227817296982,0.09294489026069641,-0.3273935317993164,0.08577604591846466,-0.007115441374480724,0.2029089480638504,-0.1011853888630867,-0.05356021970510483,-0.10780970007181168,-0.025724902749061584,0.028044437989592552,0.10156669467687607,0.07374615222215652,0.129496768116951,-0.0571759007871151,0.03814679756760597,-0.018809139728546143,0.05785702168941498,0.03228606656193733,0.02727399580180645,0.10065241158008575,0.10024279356002808,-0.12605464458465576,-0.07571592926979065,0.0576147586107254,0.003674447536468506,0.054653722792863846,-0.015391533263027668,0.050323355942964554,-0.08446954935789108,0.10472410917282104,0.051274511963129044,-0.043658897280693054,0.03283461928367615,0.04561973363161087,-0.12222148478031158,0.15637777745723724,0.020384304225444794,0.165245920419693,-0.1905336230993271,-0.00878193974494934,-0.12181274592876434,0.20544277131557465,-0.07140295952558517,0.032148879021406174,-0.12927301228046417,0.12302479892969131,0.1223527193069458,-0.12558697164058685,0.014154658652842045,0.020522035658359528,-0.1560315489768982,-0.005628798622637987,-0.0786101296544075,0.0895971953868866,-0.05087786912918091,0.16298578679561615,-0.1449267566204071,-0.12147156149148941,0.0019165712874382734,-0.24567779898643494,-0.13341931998729706,-0.00113531737588346,0.04740982875227928,-0.14491422474384308,-0.11365953832864761,-0.16047117114067078,-0.14633065462112427,0.06779031455516815,-0.23241457343101501,0.2123633325099945,-0.011334162205457687,0.15590158104896545,0.07156587392091751,0.23800387978553772,0.03668425977230072,0.11874466389417648,0.05703717842698097,0.1616373062133789,0.033110540360212326,-0.1079263836145401,-0.14604787528514862,-0.10979445278644562,-0.10518264025449753,0.07795432955026627,-0.06865600496530533,0.046908412128686905,-0.06687869131565094,0.09815824031829834,0.04515997692942619,0.13208074867725372,-0.002228556666523218,0.06774068623781204,-0.11257995665073395,-0.02974688448011875,0.02577923610806465,-0.049838632345199585,-0.1600896418094635,-0.01389880571514368,-0.23086832463741302,0.13573646545410156,-0.12875260412693024,0.11381198465824127,-0.14384840428829193,0.2326456755399704,-0.09867498278617859,-0.05453261360526085,0.040485356003046036,0.12231089919805527,0.050030238926410675,0.04957481101155281,0.06531818956136703,0.0536537729203701,0.09877006709575653,-0.1622002273797989,-0.1141473799943924,0.0994950532913208,-0.003980998881161213,0.06612319499254227,-0.32079198956489563,0.03460037708282471,-0.09760978817939758,0.22370709478855133,-0.2382974773645401,0.16238804161548615,-0.3465740978717804,-0.07326195389032364,-0.1974177360534668,0.03677944466471672,0.012123535387217999,-0.09011171758174896,0.09714998304843903,0.10121560096740723,-0.12381640076637268,0.29865941405296326,-0.14848648011684418,0.13881385326385498,-0.27529028058052063,0.13903911411762238,-0.1729872077703476,0.03245800733566284,0.0016269558109343052,-0.006724159233272076,0.18002885580062866,-0.0376732274889946,-0.04113186523318291,0.030151253566145897,0.06291814893484116,0.09417062997817993,-0.0027856400702148676,0.12940704822540283,0.19303922355175018,0.12049010396003723,-0.16914725303649902,0.08467760682106018,-0.05607618764042854,0.2186383455991745,0.0673913061618805,0.10362555831670761,-0.016879882663488388,-0.09829703718423843,0.06089574471116066,-0.013348739594221115,0.06252330541610718,0.012810857966542244,0.19705818593502045,0.011703073047101498,-0.3840576112270355,0.3857393264770508,0.3073374927043915,-0.6636162996292114,0.06755468994379044,-0.834118127822876,-0.24292822182178497,-0.4156820774078369,0.7521389126777649,-0.8363302946090698,-0.47062578797340393,-0.8688391447067261,0.21342986822128296,-0.7020953297615051,0.5549842715263367,-0.6498539447784424,-0.17170578241348267,-0.06322155147790909,-0.09156474471092224,0.3193370997905731,0.26994773745536804,-0.14237169921398163,-0.37667420506477356,-0.023683777078986168,0.04612535610795021,-0.10290128737688065,0.1377176195383072,0.09036630392074585,0.5137118697166443,0.1084207072854042,-0.08638796210289001,-0.13187415897846222,0.20474326610565186,-0.21409107744693756,-0.0011926161823794246,0.09910176694393158,-0.31043434143066406,0.3765093982219696,-0.03006080538034439,-0.12392649799585342,0.17328578233718872,-0.11461922526359558,0.14378707110881805,0.33482640981674194,-0.2718369960784912,0.09190504252910614,0.21751706302165985,0.16895505785942078,-0.026348426938056946,-0.30378758907318115,0.07727698236703873,0.16911835968494415,-0.02862340584397316,0.31007590889930725,0.033990517258644104,0.033557381480932236,-0.06367969512939453,0.10148695856332779,-0.29662787914276123,-0.2078162282705307,-0.40416043996810913,0.14329925179481506,0.16049252450466156,0.18259406089782715,0.01614195853471756,0.24168255925178528,-0.20373612642288208,-0.1592739373445511,-0.09074034541845322,-0.10924921929836273,-0.22871091961860657,0.06254863739013672,-0.048022832721471786,-0.054469116032123566,0.17396263778209686,0.3056320250034332,0.23521381616592407,-0.1494680792093277,0.02827400527894497,-0.050029851496219635,0.3587886095046997,-0.08618541061878204,-0.14187119901180267,0.047978226095438004,0.13247057795524597,0.0334298312664032,-0.008522405289113522,0.2320314198732376,0.19048210978507996,0.016476863995194435,-0.08173365890979767,0.2469695806503296,0.0025157942436635494,-0.01929180882871151,-0.06318071484565735,-0.1610063761472702,-0.22270578145980835,-0.11455921828746796,-0.2694966197013855,-0.14154991507530212,0.15102101862430573,-0.20696592330932617,0.001036185654811561,-0.13052791357040405,0.0027371065225452185,0.1609349399805069,-0.054879914969205856,-0.20154623687267303,-0.12407980114221573,-0.11736982315778732,0.06764393299818039,0.03723985329270363,0.1338988095521927,-0.10722263902425766,0.369848370552063,-0.21263672411441803,0.007225736975669861,0.21115420758724213,-0.21330657601356506,-0.19302059710025787,0.24236685037612915,-0.0022423728369176388,-0.24599987268447876,0.11611581593751907,0.03670583665370941,0.03538807854056358,-0.21147078275680542,0.274118036031723,0.12549667060375214,0.035481829196214676,0.006991012487560511,0.08842477947473526,0.09300030767917633,-0.08523297309875488,-0.10704226046800613,0.15174373984336853,-0.00035311057581566274,0.24021102488040924,-0.23243029415607452,0.09999449551105499,-0.25582262873649597,0.06337323039770126,0.06632278114557266,0.14580966532230377,0.1468767523765564,-0.004216620232909918,-0.17850370705127716,-0.07666799426078796,-0.37757959961891174,0.0442206934094429,0.009083685465157032,-0.1927684098482132,0.2012748420238495,0.14158238470554352,0.01983814686536789,-0.2612404525279999,-0.32649293541908264,0.2853335440158844,-0.19906334578990936,0.420104444026947,-0.1256294995546341,0.14845432341098785,-0.26468944549560547,0.0066527435556054115,0.15854546427726746,-0.2760447859764099,0.06738914549350739,0.09403789043426514,-0.09479107707738876,-0.1206238642334938,0.24358423054218292,0.22404350340366364,0.37230613827705383,0.011844279244542122,0.16307972371578217,-0.215391606092453,0.01986440271139145,-0.19482950866222382,0.0344243198633194,0.22475425899028778,-0.04494178667664528,0.1250961869955063,-0.0007156517822295427,-0.09063155204057693,0.24819763004779816,0.3157676160335541,-0.2773120701313019,0.06950674951076508,-0.20746269822120667,0.1454758197069168,-0.11647353321313858,0.11954348534345627,-0.08759453892707825,0.3616673946380615,-0.26502448320388794,-0.2148924469947815,-0.14768776297569275,-0.293992817401886,-0.12355727702379227,0.17570710182189941,-0.145646333694458,-0.0066544003784656525,0.21154044568538666,-0.19745181500911713,0.31434303522109985,-0.21919208765029907,0.10911686718463898,-0.15195660293102264,-0.158628448843956,-0.2551976442337036,0.01918564923107624,0.16663435101509094,0.06164051592350006,-0.09420235455036163,-0.21148289740085602,0.07571715116500854,-0.22850848734378815,-0.02641795575618744,-0.21077316999435425,-0.0404052808880806,0.27920833230018616,-0.21805992722511292,-0.07638552039861679,-0.012445592321455479,0.15483322739601135,-0.07988302409648895,-0.10443083941936493,0.304678350687027,-0.3049872815608978,0.10404045134782791,-0.02022203430533409,-0.10546527057886124,0.20897258818149567,0.3033348619937897,-0.02125454880297184,-0.10778973251581192,-0.0023314885329455137,0.27013251185417175,-0.05757034197449684,0.04674907773733139,-0.020484205335378647,0.257754385471344,-0.0005022193654440343,-0.19915539026260376,-0.25108960270881653,-0.11164537817239761,0.13538900017738342,-0.0011139073176309466,-0.15334899723529816,0.13449124991893768,-0.09936824440956116,-0.07308255136013031,-0.27524247765541077,0.004193676635622978,0.33753785490989685,0.23435315489768982,0.2288072407245636,-0.2695380449295044,-0.09870776534080505,0.09288045018911362,-0.25662314891815186,0.023838941007852554,-0.2989961504936218,0.12875135242938995,0.21824143826961517,-0.18219028413295746,0.16799314320087433,0.03839549794793129,0.09652098268270493,0.30627432465553284,-0.4006792902946472,-0.1291923224925995,-0.0854123905301094,-0.02482183463871479,-0.08015582710504532,0.09422270208597183,-0.1777287870645523,0.0025042903143912554,0.15812502801418304,0.2004627287387848,0.025406185537576675,0.13913369178771973,-0.08169885724782944,-0.13283760845661163,0.005521908402442932,-0.2895358204841614,-0.16932517290115356,-0.1310160905122757,0.19346719980239868,-0.019166432321071625,0.046382006257772446,0.05753754824399948,-0.1273457258939743,-0.08419583737850189,-0.007094176951795816,-0.05315590649843216,-0.0889265313744545,0.030150635167956352,-0.1490202397108078,-0.12248876690864563,0.1688954383134842,0.03256922960281372,-0.04048151895403862,-0.1831013709306717,-0.06383029371500015,-0.14859604835510254,0.03560132905840874,0.06345001608133316,0.025691533461213112,-0.07430615276098251,0.10647314786911011,-0.11292050778865814,-0.048453107476234436,0.05732964724302292,-0.01876058243215084,-0.007972695864737034,0.08028489351272583,0.0514117069542408,0.026684237644076347,0.06646279245615005,-0.07745925337076187,-0.23500719666481018,-0.12677259743213654,0.04038403928279877,0.0427054762840271,-0.08945951610803604,-0.021513797342777252,-0.06431220471858978,-0.00041217851685360074,-0.20870058238506317,0.20188218355178833,0.05108239874243736,-0.06103247031569481,0.17044603824615479,-0.10521931201219559,-0.14397379755973816,-0.02910464257001877,-0.05681372806429863,-0.009993855841457844,-0.07484891265630722,0.10801616311073303,0.07439647614955902,0.12877300381660461,0.10782035440206528,0.11538947373628616,-0.02113407477736473,-0.05496019870042801,-0.03184886649250984,0.12647978961467743,-0.04427376389503479,-0.000013845399735146202,0.0968736931681633,0.0919857993721962,-0.15977472066879272,0.03410689905285835,-0.29914429783821106,0.002708365907892585,-0.08712542802095413,-0.14421376585960388,0.0017652439419180155,0.07023795694112778,0.04635700583457947,-0.14627325534820557,0.15026667714118958,0.1651535928249359,0.1181236207485199,0.12784843146800995,0.04571250081062317,0.011461596935987473,0.02501928061246872,-0.0024559118319302797,-0.0078114671632647514,0.09263142943382263,0.2782381474971771,-0.0907965674996376,-0.09527499973773956,-0.009509817697107792,-0.1447782665491104,-0.0911179780960083,0.2073315531015396,0.0747724324464798,0.09746132045984268,-0.02960439771413803,-0.019861295819282532,0.302373468875885,-0.1078229546546936,0.030962208285927773,0.15339936316013336,-0.04447916895151138,-0.06021776795387268,0.16163571178913116,0.10909123718738556,0.06871917843818665,-0.12892019748687744,-0.001630766550078988,0.13375550508499146,-0.02324662171304226,-0.10868524014949799,0.07430414855480194,0.016896218061447144,0.10459678620100021,-0.009006615728139877,-0.010842784307897091,0.014273994602262974,-0.07184439897537231,-0.13736571371555328,-0.013509559445083141,0.037427086383104324,0.13698351383209229,0.08783944696187973,-0.015368591994047165,-0.05522404983639717,-0.010553581640124321,-0.04243811219930649,-0.03349928557872772,0.1378728747367859,-0.06315688043832779,-0.08094403147697449,0.0653892457485199,0.09879778325557709,0.23250563442707062,0.18827487528324127,0.06607843935489655,0.06029752641916275,0.07866968959569931,0.009160122834146023,-0.045561447739601135,-0.043090205639600754,0.012323607690632343,-0.11444243043661118,-0.08340637385845184,-0.10458420217037201,-0.13127978146076202,0.2546808421611786,0.46242761611938477,-0.2652536630630493,0.09200851619243622,0.12066543102264404,0.03178700804710388,0.09188921004533768,-0.22048430144786835,0.1121625155210495,0.07159377634525299,-0.043626315891742706,-0.1283588707447052,-0.03365790471434593,-0.05952896550297737,0.29069098830223083,-0.1616986095905304,-0.014451679773628712,0.022358641028404236,0.09489676356315613,-0.03421328589320183,0.13882572948932648,-0.09611495584249496,0.1890832781791687,-0.054283302277326584,0.13850924372673035,0.03521287441253662,-0.0007129768491722643,-0.0668289065361023,-0.019672494381666183,-0.1458568423986435,-0.008263078518211842,-0.052380967885255814,0.3468254804611206,0.021309159696102142,-0.12057939916849136,-0.035670824348926544,0.1250317543745041,-0.04067530110478401,0.04106365516781807,0.019730351865291595,0.1052352711558342,-0.18374834954738617,0.026368146762251854,-0.12883338332176208,-0.1304582804441452,0.016491739079356194,0.18414242565631866,-0.13277728855609894,0.08659352362155914,-0.12095280736684799,0.011390551924705505,0.029007457196712494,0.12319730222225189,-0.0018944235052913427,-0.06273477524518967,0.1263439655303955,-0.03301509842276573,0.23869650065898895,-0.19925834238529205,-0.09317450225353241,0.021085405722260475,0.04882334917783737,-0.003898640861734748,0.08624331653118134,-0.23698534071445465,-0.03373127803206444,-0.11256908625364304,0.2605462074279785,0.07492968440055847,0.01774296909570694,-0.1292913407087326,-0.07633187621831894,-0.3020753264427185,0.26394280791282654,0.13411810994148254,0.25190868973731995,-0.20444852113723755,-0.1858336627483368,-0.19895340502262115,0.20668044686317444,-0.015247287228703499,0.10895683616399765,-0.25481557846069336,-0.21256503462791443,-0.07292326539754868,0.17714902758598328,-0.19311539828777313,-0.25792253017425537,0.3188604712486267,0.02406235970556736,-0.32418566942214966,0.5325555205345154,0.062117863446474075,-0.16802842915058136,0.13423867523670197,0.24766342341899872,-0.09532216936349869,0.11929672211408615,-0.08204329758882523,-0.047149769961833954,0.040952734649181366,-0.04248674586415291,-0.10431410372257233,-0.2517068684101105,-0.10923075675964355,-0.20026129484176636,0.16135242581367493,0.10425637662410736,0.027368560433387756,0.15225130319595337,0.11725642532110214,0.12878121435642242,0.21869708597660065,-0.26623988151550293,0.12423025071620941,0.000054394429753301665,-0.2471667379140854,-0.20751778781414032,0.08376096189022064,0.1412503719329834,0.006763001903891563,-0.32011789083480835,-0.17219899594783783,-0.06281755864620209,0.19694925844669342,0.20305681228637695,0.15065480768680573,-0.03229225426912308,0.1380215287208557,0.174190953373909,0.14339011907577515,0.15811583399772644,-0.028693336993455887,-0.16269589960575104,0.12469252943992615,0.11843571811914444,-0.10939985513687134,-0.14267577230930328,-0.10408372431993484,-0.2971048951148987,0.3021472692489624,0.11424240469932556,-0.15124408900737762,-0.06251931190490723,-0.021932201460003853,-0.021789675578475,0.1581752449274063,0.005943319294601679,0.04740682244300842,0.2207755744457245,-0.08048395067453384,-0.10622409731149673,-0.054004278033971786,0.20777389407157898,0.07564195245504379,0.07913821935653687,0.0041195363737642765,0.04641668498516083,-0.1958366334438324,0.053953275084495544,0.057043928653001785,0.050230901688337326,-0.08137793093919754,-0.22324028611183167,-0.03749701753258705,0.01567167602479458,-0.050239093601703644,-0.009307417087256908,-0.03427105396986008,0.017679691314697266,-0.18715783953666687,0.16279937326908112,0.006869473960250616,0.02105332911014557,0.12273470312356949,-0.13026545941829681,-0.14213719964027405,-0.04378645122051239,0.08041787892580032,0.1319350004196167,0.014724553562700748,-0.018067283555865288,0.08153416961431503,-0.1060313731431961,-0.12709766626358032,-0.00786016508936882,0.07656663656234741,0.09750115871429443,0.23748911917209625,-0.14654134213924408,-0.23137515783309937,0.06974346935749054,-0.09979452937841415,-0.11558399349451065,0.1421174854040146,0.055211395025253296,0.0641680657863617,-0.13862155377864838,0.05262282118201256,0.010167337954044342,-0.09966490417718887,-0.07960736751556396,-0.045629020780324936,-0.06164618209004402,-0.020759427919983864,0.030829133465886116,0.08983471989631653,0.32519248127937317,0.11826806515455246,-0.1817142516374588,-0.11134885251522064,0.0411519855260849,-0.11497965455055237,0.29435431957244873,-0.17533966898918152,-0.09104398638010025,-0.06521521508693695,-0.0015574815915897489,-0.0361514687538147,0.08783221244812012,-0.26084259152412415,0.13167385756969452,-0.13270437717437744,0.17752331495285034,0.07045361399650574,0.200245201587677,-0.13885189592838287,-0.026297612115740776,-0.20241083204746246,0.2235003262758255,-0.1039685532450676,-0.13263331353664398,0.17221182584762573,0.09476672112941742,-0.2373688668012619,0.026615779846906662,-0.13983570039272308,0.016825798898935318,0.13133829832077026,0.1439579576253891,-0.3230004906654358,0.14433807134628296,0.292321115732193,0.054941534996032715,0.04636115953326225,0.0021287291310727596,0.12393777072429657,-0.01988215371966362,0.06565064191818237,0.14988593757152557,0.15167701244354248,-0.020094115287065506,0.0219194944947958,0.09632990509271622,-0.09575513750314713,-0.11579115688800812,-0.06073460355401039,0.23652169108390808,0.11479043960571289,0.09612333029508591,0.000803076196461916,-0.11011822521686554,-0.18168748915195465,0.0859658271074295,-0.04788978770375252,0.1370055079460144,0.019025618210434914,0.008368588984012604,0.014197045005857944,0.1272420436143875,0.08809276670217514,0.02886340208351612,-0.13422919809818268,0.05578135326504707,-0.07788906246423721,-0.15319432318210602,0.1126406341791153,0.12932278215885162,0.08095120638608932,0.02262076362967491,0.21861696243286133,-0.07651302963495255,0.12307567894458771,0.0991729348897934,0.11984951794147491,0.06810504198074341,-0.06933030486106873,-0.3058595657348633,-0.020545843988656998,-0.0937030166387558,-0.07766474783420563,0.2143554389476776,0.12860824167728424,-0.0032106838189065456,0.13102832436561584,0.07322774082422256,-0.00018367833399679512,-0.01895681396126747,-0.03274356573820114,-0.085128054022789,0.1639159917831421,0.1228378415107727,0.2032826691865921,-0.03733840957283974,-0.1201060488820076,-0.2540492117404938,-0.05885429307818413,-0.26741328835487366,0.048605091869831085,-0.44032567739486694,-0.12323322892189026,-0.12596555054187775,-0.05106758326292038,0.03603740409016609,0.1387248933315277,-0.17142364382743835,0.024349592626094818,-0.08553741872310638,0.10823486745357513,-0.06099103391170502,0.2787306308746338,0.20782141387462616,0.09942837804555893,-0.07142990082502365,0.21008288860321045,-0.08423460274934769,-0.17435233294963837,-0.017376217991113663,0.02850421331822872,0.05234397575259209,0.5135207772254944,-0.09844020009040833,-0.06667114049196243,-0.10130907595157623,0.01573970727622509,-0.006422627717256546,-0.24504289031028748,0.29990243911743164,0.08736923336982727,0.11422941833734512,0.09458471089601517,0.0771530419588089,0.10855835676193237,-0.033003050833940506,0.0015778107335790992,0.007024393416941166,0.17932672798633575,0.1585264652967453,-0.1447555422782898,0.03965652361512184,-0.03701622039079666,0.0727178156375885,-0.08930026739835739,0.11780700087547302,0.17826224863529205,-0.11572686582803726,0.022991402074694633,0.09676948189735413,0.011927586048841476,0.04706823453307152,0.14381061494350433,-0.07326909899711609,-0.10300268232822418,-0.05256913974881172,0.21288041770458221,0.18968740105628967,0.07284584641456604,-0.021823186427354813,-0.04343842342495918,-0.14451822638511658,0.16795504093170166,0.14901214838027954,0.012940130196511745,0.0003590279375202954,0.1884201616048813,-0.11928707361221313,-0.21715344488620758,-0.024038489907979965,0.20490746200084686,-0.17167456448078156,0.06913832575082779,-0.1265982836484909,-0.2149743288755417,-0.033666301518678665,0.025795986875891685,0.02982529252767563,0.04829701781272888,-0.09799962490797043,0.05349124222993851,0.026555899530649185,-0.10371971130371094,0.218409925699234,0.009232939220964909,0.11626265943050385,0.017043430358171463,0.05852802097797394,-0.015478250570595264,0.10952737182378769,-0.1115022823214531,-0.05632579326629639,0.026806600391864777,0.06562165170907974,0.06298477947711945,0.12477798759937286,0.11389318108558655,0.0020036380738019943,-0.28297877311706543,-0.23177914321422577,-0.08599825203418732,-0.03772756829857826,-0.09636849164962769,-0.013201926834881306,-0.3136134743690491,-0.11980337649583817,-0.16796603798866272,0.061045221984386444,0.17511050403118134,0.04523539915680885,0.030928703024983406,-0.15274670720100403,-0.20966219902038574,0.09105394780635834,-0.1452217400074005,-0.17493678629398346,0.28935980796813965,0.11436659097671509,-0.3849009871482849,0.4544144868850708,-0.18900638818740845,-0.14940260350704193,-0.009429591707885265,0.011558879166841507,-0.0011583033483475447,0.12334276735782623,0.1895304173231125,0.14194393157958984,-0.04437413439154625,-0.10113508254289627,-0.05423834174871445,0.07859767228364944,0.011828170157968998,-0.12712238729000092,-0.23053191602230072,0.2945239543914795,0.35640931129455566,0.20160390436649323,-0.04900375381112099,-0.09046481549739838,0.12985405325889587,-0.19601920247077942,-0.20206087827682495,-0.14403273165225983,-0.21380756795406342,-0.4802241623401642,-0.10902480036020279,0.00511368690058589,-0.07555005699396133,0.01816626451909542,-0.15857918560504913,-0.17711153626441956,-0.1389673352241516,0.10170301795005798,0.4172554612159729,0.15741802752017975,0.1147201731801033,0.007104560732841492,0.09511496871709824,-0.08745582401752472,0.18355916440486908,-0.17106428742408752,0.07507321983575821,0.27417296171188354,0.06860984861850739,0.44173750281333923,0.6096437573432922,-0.00785129889845848,0.02197054959833622,0.16178598999977112,0.14420931041240692,0.1788949966430664,0.10364589095115662,0.2979120910167694,-0.09236432611942291,-0.218514546751976,-0.19506679475307465,0.03459757938981056,0.00501010287553072,-0.2670648694038391,-0.14611244201660156,-0.040244705975055695,0.2897930443286896,-0.1165391355752945,0.0821899026632309,0.08917693048715591,-0.07161367684602737,-0.021586744114756584,-0.10454688966274261,0.10448405146598816,-0.07396267354488373,-0.0867668017745018,-0.0049999733455479145,-0.043184660375118256,-0.07152462005615234,0.02515057846903801,0.0752074122428894,-0.04461073875427246,0.005584540776908398,-0.05650796741247177,0.25924527645111084,0.003959013614803553,-0.006106522865593433,-0.2144269049167633,-0.05196152254939079,0.12754899263381958,0.16589781641960144,0.008737127296626568,0.1279333233833313,-0.03044096753001213,0.0030758825596421957,0.09956452250480652,-0.16822603344917297,-0.13198967278003693,0.012776752933859825,-0.19562679529190063,-0.09950654208660126,-0.11146964132785797,-0.11520299315452576,0.01760619878768921,0.3264866769313812,0.07960313558578491,-0.038348279893398285,-0.10188299417495728,-0.046234115958213806,-0.006834966130554676,-0.137437641620636,0.08588957786560059,-0.17875660955905914,-0.1168985441327095,-0.10747753083705902,-0.03165057674050331,-0.049458205699920654,-0.12284897267818451,-0.007889540866017342,-0.1244906336069107,-0.10773245245218277,-0.11944136768579483,0.01143359113484621,-0.13334615528583527,-0.0018624973017722368,0.005130164325237274,0.07735703885555267,0.06917532533407211,-0.15573982894420624,0.0518195815384388,0.013396305963397026,0.023135673254728317,0.002047916641458869,-0.031356170773506165,-0.006952809635549784,0.07526567578315735,-0.0980292484164238,0.055941011756658554,-0.25822004675865173,-0.13494734466075897,-0.12134041637182236,-0.15908296406269073,0.006077117286622524,-0.13569976389408112,0.09630462527275085,0.1460844874382019,-0.2380276918411255,0.026500634849071503,0.05249210074543953,0.200077623128891,0.026402264833450317,-0.21044844388961792,0.2659052610397339,-0.19700036942958832,0.004319972358644009,0.0202048160135746,0.1790250986814499,-0.10049363970756531,-0.0012003409210592508,0.20546773076057434,-0.11461031436920166,0.11747410148382187,0.017515845596790314,-0.05278109386563301,0.08682563155889511,0.022058792412281036,0.09780493378639221,-0.11512909084558487,-0.10615592449903488,0.13259926438331604,0.04529696702957153,0.14029206335544586,0.13147704303264618,0.12539248168468475,0.09375998377799988,-0.05932513624429703,-0.12986987829208374,0.07807470858097076,-0.0242135189473629,0.1095644012093544,-0.19371485710144043,-0.15169835090637207,-0.2584477365016937,0.1318352222442627,-0.1137089729309082,0.07978522032499313,-0.032300494611263275,-0.24311251938343048,0.07648617774248123,-0.1130262240767479,-0.14164815843105316,-0.022214433178305626,0.07152685523033142,0.14550603926181793,-0.18008501827716827,0.04778344929218292,-0.15204696357250214,-0.10943640023469925,0.3399207293987274,0.12032017856836319,-0.0023325777146965265,0.05497245118021965,-0.05633794143795967,0.08627047389745712,-0.21042631566524506,-0.06643430888652802,-0.23553916811943054,0.08687036484479904,-0.045349348336458206,0.07763279229402542,-0.03919115662574768,-0.3299156725406647,0.054448116570711136,0.006001173984259367,0.037659429013729095,-0.31012240052223206,-0.522419273853302,0.6229151487350464,0.4934528172016144,-0.6626383066177368,0.2980857491493225,-0.3282758891582489,-0.018757842481136322,0.266332745552063,-0.7985279560089111,0.7936870455741882,0.7141409516334534,-0.04955023154616356,-0.5047775506973267,0.3470275402069092,-0.5566278100013733,0.10786363482475281,-0.05110667273402214,0.10023088753223419,-0.4187225103378296,0.03668949380517006,0.24202026426792145,0.24393314123153687,0.02059870958328247,0.22968800365924835,-0.023381194099783897,0.11329149454832077,0.2138679176568985,-0.1537339687347412,-0.020794756710529327,-0.0825662761926651,-0.0979762077331543,0.1112067699432373,0.004335394129157066,0.07017862051725388,-0.03285127878189087,0.2528716027736664,0.20533715188503265,0.09692887216806412,-0.1545325219631195,-0.29125285148620605,0.00989869236946106,-0.04379494860768318,-0.20717839896678925,0.13817986845970154,0.31957247853279114,0.18667319416999817,-0.011674756184220314,0.012195007875561714,-0.19763323664665222,0.017305446788668633,-0.10876946896314621,0.2864011824131012,-0.13010285794734955,-0.04228098317980766,-0.11547400802373886,-0.17359985411167145,0.06214911863207817,-0.22196222841739655,0.14345526695251465,0.09691611677408218,-0.3191721737384796,-0.04459015280008316,0.07379002124071121,0.24011166393756866,-0.05327485501766205,0.04264456033706665,-0.12318234145641327,-0.07998210936784744,0.17974674701690674,-0.2806641459465027,0.26157811284065247,0.18711799383163452,-0.03399673104286194,-0.13230067491531372,0.5230876803398132,0.3094511330127716,-0.017637956887483597,0.08272264152765274,0.027772551402449608,0.04975808039307594,-0.0209196787327528,0.3506956994533539,-0.230013906955719,-0.047485172748565674,-0.025419307872653008,0.20751364529132843,-0.05122092738747597,0.1819758117198944,-0.1286802589893341,0.006129258777946234,-0.05654014274477959,-0.08100541681051254,0.012085077352821827,0.09241718798875809,-0.2474815547466278,-0.09441468864679337,0.007639140356332064,-0.01193572860211134,-0.2921786308288574,-0.08972223103046417,-0.015748608857393265,0.266586035490036,0.12293160706758499,-0.0680202767252922,-0.1883879005908966,-0.11184815317392349,0.24606375396251678,0.083600252866745,0.06568746268749237,0.12861354649066925,0.2273619920015335,0.15379557013511658,0.12863287329673767,-0.067659392952919,0.06550876796245575,-0.15910819172859192,0.10854572057723999,0.11142805963754654,-0.06210487335920334,-0.29338595271110535,-0.005056924186646938,0.34038105607032776,-0.24444741010665894,0.29030007123947144,0.22161832451820374,0.10806109756231308,-0.12242678552865982,0.004263844341039658,0.13584297895431519,-0.23230299353599548,-0.0062222895212471485,0.11620043963193893,-0.22093163430690765,0.034862373024225235,-0.039859186857938766,0.14505983889102936,0.206371009349823,0.03662322461605072,0.3209420442581177,0.17357663810253143,-0.04344473034143448,-0.042306240648031235,-0.02132583223283291,-0.2159317284822464,0.19261534512043,-0.07855410873889923,0.24203036725521088,0.2795635461807251,-0.05840163305401802,-0.24379511177539825,0.05361724644899368,-0.11670683324337006,0.1732596606016159,-0.126270592212677,0.20532308518886566,-0.2899128496646881,-0.015622296370565891,0.06805835664272308,0.05606946349143982,0.052958134561777115,-0.08802418410778046,-0.2096627950668335,0.10244905948638916,0.02180885523557663,0.15388844907283783,-0.12576919794082642,-0.18175500631332397,-0.008595637045800686,0.02007567137479782,0.041314929723739624,-0.036684080958366394,-0.05632845684885979,-0.20015683770179749,0.1870456337928772,-0.07551638036966324,0.32275596261024475,-0.18584279716014862,-0.13559438288211823,-0.04760335385799408,0.30815985798835754,-0.16075153648853302,0.09942550957202911,0.004256808198988438,0.18029539287090302,0.06513375043869019,-0.21415159106254578,0.04627377167344093,0.05177903547883034,-0.12082279473543167,0.07654228806495667,0.25141626596450806,0.10335724800825119,0.0431208498775959,0.028399841859936714,-0.07314131408929825,-0.12892454862594604,0.26617661118507385,0.27693378925323486,0.15634244680404663,-0.02121652476489544,-0.2562756836414337,-0.18063342571258545,0.21066026389598846,-0.2170453816652298,-0.3157162368297577,0.05556134134531021,0.11024048924446106,-0.19795385003089905,-0.22427742183208466,-0.16951408982276917,-0.05326875299215317,0.2858349680900574,0.10498423129320145,-0.08278515934944153,-0.07373319566249847,-0.004771753214299679,-0.03731636703014374,-0.2051168531179428,0.12143545597791672,-0.0028292739298194647,0.2526465058326721,0.07886765897274017,-0.04632370546460152,-0.09560549259185791,0.19420596957206726,-0.1181153878569603,-0.11539237946271896,0.04163641855120659,-0.047920968383550644,0.1878630667924881,-0.10717438161373138,0.006833267398178577,0.02512422576546669,0.10039655864238739,-0.3404608964920044,0.12074712663888931,0.14463916420936584,-0.11717209964990616,0.005798415746539831,0.08656838536262512,0.21584810316562653,-0.03924160078167915,0.16844332218170166,-0.2155609130859375,0.026468751952052116,0.06261760741472244,-0.2818853557109833,0.03825897350907326,0.14137230813503265,0.1496153473854065,0.02465885318815708,-0.1480986624956131,0.20999003946781158,0.01283486932516098,-0.31017425656318665,-0.08057992160320282,-0.049516551196575165,0.03725181147456169,-0.36834678053855896,-0.27872100472450256,-0.11452354490756989,0.1754310131072998,-0.32950958609580994,0.1183379590511322,0.07070796936750412,0.377465158700943,0.03226710483431816,-0.111839160323143,0.12714655697345734,-0.058385320007801056,-0.05939105898141861,0.03236720710992813,0.04167633503675461,0.03558781370520592,0.2866075932979584,-0.10824458301067352,0.15295936167240143,0.1225743442773819,0.03150671720504761,-0.23085437715053558,-0.11674830317497253,0.03256445378065109,0.1318265050649643,0.15622802078723907,0.08766687661409378,-0.09218542277812958,-0.09198325127363205,0.24588355422019958,-0.14420053362846375,-0.011683733202517033,0.0941954106092453,-0.10392194986343384,0.0744737982749939,0.10740409046411514,-0.005191067699342966,-0.011640237644314766,-0.10391168296337128,0.005895022768527269,0.22337107360363007,0.14930270612239838,-0.06465552747249603,-0.12600015103816986,0.05448015406727791,-0.21839869022369385,0.09589327871799469,0.010863655246794224,-0.0950324758887291,-0.2543237805366516,-0.19181770086288452,-0.08066388219594955,0.02054596319794655,-0.016920510679483414,0.021937638521194458,-0.06872397661209106,-0.014233546331524849,0.00820759404450655,0.024015022441744804,0.03607280179858208,0.006692544557154179,0.15282589197158813,0.03309372439980507,-0.2753049433231354,-0.09088139981031418,-0.12130855768918991,0.0872112512588501,-0.00288911210373044,0.08511617034673691,0.08886884152889252,-0.17161016166210175,-0.17766180634498596,0.08612946420907974,-0.15383009612560272,0.06295818090438843,0.07902447879314423,-0.1112225353717804,-0.25367090106010437,0.4000053405761719,-0.06523758172988892,-0.12525156140327454,-0.11239723116159439,-0.06102880463004112,-0.0037927194498479366,-0.2610655426979065,0.0717652440071106,-0.10314261168241501,0.19442622363567352,0.0016561917727813125,-0.020705318078398705,0.1390964835882187,0.2925962209701538,0.14065392315387726,-0.09772120416164398,-0.19240042567253113,-0.35319191217422485,0.28879842162132263,0.15988990664482117,0.010045171715319157,-0.19881820678710938,-0.2228664755821228,-0.047409165650606155,-0.05217352882027626,-0.07803773134946823,0.03892693668603897,0.16744248569011688,0.011523116379976273,-0.10449738800525665,-0.0184917189180851,0.05629510059952736,0.16842733323574066,0.13265009224414825,-0.2649385333061218,-0.11840631812810898,-0.0985284075140953,0.00014435396587941796,-0.22225455939769745,0.07038827985525131,-0.01716313324868679,-0.07756830751895905,0.11317510157823563,0.1983301043510437,-0.09250446408987045,0.06301146000623703,0.14058130979537964,-0.11160434782505035,-0.10233939439058304,0.028186820447444916,0.26583489775657654,0.012861032970249653,-0.17556338012218475,-0.051085181534290314,-0.04584132134914398,0.1042017862200737,-0.057326626032590866,0.010434763506054878,0.06763730198144913,0.18702824413776398,-0.026066796854138374,-0.10865907371044159,-0.07583560794591904,-0.13069097697734833,0.03273003175854683,0.06405659765005112,0.10937468707561493,-0.177669495344162,-0.00911717489361763,-0.06695462018251419,0.1459595263004303,0.048865094780921936,0.06358014047145844,0.07523597031831741,0.009473367594182491,-0.06262394040822983,0.11977951228618622,0.09813995659351349,0.03633918985724449,-0.079088494181633,-0.08530578762292862,-0.1465199589729309,-0.04661776125431061,-0.06410212069749832,0.011951837688684464,0.038932155817747116,0.05293123796582222,0.07131581753492355,-0.11048831045627594,0.08379897475242615,0.014217579737305641,-0.21406365931034088,-0.05222971737384796,0.1034778282046318,-0.13010293245315552,-0.020429084077477455,0.12844428420066833,0.04535454511642456,0.5766861438751221,0.23068782687187195,0.16774141788482666,0.22145211696624756,0.07515670359134674,0.029803115874528885,0.21507589519023895,0.08679499477148056,0.011266948655247688,-0.011332996189594269,-0.04220181703567505,-0.2398880571126938,-0.07140728831291199,-0.16482992470264435,0.013669926673173904,0.3631993234157562,0.08467652648687363,0.04958369955420494,0.12404733151197433,0.13730020821094513,0.21599386632442474,0.0511823445558548,-0.1367446780204773,-0.09015601873397827,-0.1683511883020401,-0.023168018087744713,0.09892746061086655,0.0980876162648201,0.1520589143037796,0.021887117996811867,-0.09104004502296448,0.0135537413880229,0.09840280562639236,0.10738831013441086,0.22274154424667358,0.09826193749904633,0.07976385205984116,0.11928720027208328,-0.150337353348732,-0.1035025417804718,0.1762673407793045,-0.20628885924816132,-0.22403231263160706,-0.008566370233893394,-0.22073358297348022,0.24747677147388458,0.07664281129837036,-0.031970951706171036,0.3205178678035736,0.008327994495630264,-0.11928104609251022,-0.0987672358751297,0.04542511701583862,-0.016237640753388405,-0.08149715512990952,0.06645343452692032,-0.0283670611679554,0.04821600019931793,-0.0699942484498024,-0.09342654794454575,-0.11400825530290604,-0.22527462244033813,0.1725633591413498,-0.12744872272014618,-0.07002949714660645,-0.19352827966213226,0.24885022640228271,0.10857909172773361,-0.017833471298217773,-0.2147083878517151,0.11430336534976959,-0.06188351660966873,0.04111579433083534,0.07814700901508331,0.07460153847932816,-0.02050687000155449,0.03275107219815254,-0.007158856373280287,-0.027071019634604454,-0.22492921352386475,-0.09333635121583939,-0.09842701256275177,0.07523582130670547,0.04279594123363495,-0.35463765263557434,-0.2587180435657501,-0.11718874424695969,-0.08415887504816055,0.12616224586963654,0.18297581374645233,-0.07008199393749237,-0.025153839960694313,0.0068027968518435955,-0.553147554397583,-0.047178369015455246,-0.08959203958511353,-0.26609939336776733,0.031688690185546875,-0.04922187700867653,0.012492918409407139,0.12791995704174042,0.1671024113893509,-0.12037096172571182,-0.05704896152019501,-0.2804752290248871,-0.01849215291440487,-0.10770733654499054,-0.02176807075738907,-0.14469516277313232,0.019180139526724815,-0.011753998696804047,-0.047493040561676025,0.13990336656570435,0.04908578470349312,0.03838265687227249,0.015864217653870583,-0.03454165533185005,-0.07113049179315567,-0.018542518839240074,-0.05290659889578819,0.05949661508202553,0.1207197904586792,-0.0959034264087677,-0.19768951833248138,-0.07845094054937363,-0.056165050715208054,-0.013960308395326138,-0.06265083700418472,-0.04988572746515274,-0.045361921191215515,-0.04472585767507553,-0.13512097299098969,-0.09598363935947418,-0.07407835125923157,0.010568728670477867,-0.08901333808898926,-0.1373387724161148,-0.07420334219932556,-0.003748825518414378,0.14111769199371338,0.29640910029411316,0.13122479617595673,-0.10883098095655441,-0.11449949443340302,-0.06455781310796738,-0.32020512223243713,0.056452151387929916,0.07526600360870361,0.305988609790802,-0.1651524305343628,-0.07938583940267563,-0.2714337110519409,-0.17664772272109985,-0.017733978107571602,0.089581698179245,-0.08285949379205704,-0.18477745354175568,-0.2264305204153061,0.09917810559272766,0.022893108427524567,-0.3445054292678833,-0.058401141315698624,-0.0019206419819965959,-0.17674046754837036,-0.07558093965053558,0.013074173592031002,0.3893106281757355,-0.14934854209423065,-0.03661530464887619,-0.09888986498117447,0.17765749990940094,0.17036141455173492,0.23962967097759247,-0.4310985803604126,-0.05465146526694298,-0.2781318426132202,0.07987356185913086,0.23836548626422882,0.06000317260622978,-0.12495437264442444,-0.03719402104616165,0.17152132093906403,-0.21945643424987793,-0.004076505545526743,0.2704784870147705,0.19468145072460175,0.12871795892715454,0.1763445883989334,-0.1808871626853943,-0.15068283677101135,-0.05641692131757736,-0.027888473123311996,0.09300955384969711,-0.013005941174924374,-0.13460320234298706,-0.02697567082941532,-0.08302311599254608,0.19990788400173187,0.013034871779382229,0.082868792116642,-0.1630866378545761,-0.1845788210630417,0.0933009460568428,-0.05431872233748436,-0.03518886864185333,0.019725563004612923,-0.1507163643836975,0.064363032579422,-0.14319267868995667,0.026949230581521988,0.03953004255890846,0.07436028122901917,0.006782683078199625,0.12001378834247589,-0.06409784406423569,0.05874123051762581,-0.1102711632847786,-0.11897064745426178,-0.04673556983470917,0.029258325695991516,-0.10040724277496338,-0.14175091683864594,-0.24912376701831818,0.00980163924396038,0.1507434993982315,0.21548280119895935,0.019331058487296104,0.04744739457964897,0.05885281413793564,-0.1270458698272705,-0.01316453143954277,-0.16967952251434326,-0.08778281509876251,-0.057230446487665176,-0.07642346620559692,-0.05018255114555359,0.09264298528432846,-0.0673208236694336,0.2155928611755371,0.0636620819568634,0.21162739396095276,-0.0405726358294487,0.09620332717895508,-0.052287861704826355,-0.11301577091217041,0.16715900599956512,-0.11812388896942139,0.06832294166088104,-0.22182394564151764,-0.1487560272216797,-0.011244753375649452,0.12178713083267212,-0.04777941107749939,0.19447395205497742,-0.17438578605651855,-0.07819614559412003,-0.17691703140735626,-0.016568386927247047,0.0347985178232193,-0.034264616668224335,-0.16274519264698029,-0.07541725784540176,-0.06382206827402115,0.06181389465928078,0.13429848849773407,0.1529596596956253,-0.26783156394958496,0.004592726938426495,-0.08686256408691406,0.152051642537117,0.11964111775159836,0.19520209729671478,-0.29845520853996277,0.10731745511293411,-0.033128466457128525,-0.09507179260253906,-0.1456931084394455,0.04775493964552879,0.1667088121175766,0.021005021408200264,-0.010358992964029312,0.02549142763018608,-0.017813602462410927,-0.21202419698238373,0.2840067744255066,0.062033511698246,0.031015707179903984,-0.04160767048597336,0.5722538232803345,-0.20269373059272766,0.08863171935081482,0.04493961110711098,0.013324153609573841,0.02349066361784935,-0.03380552679300308,0.0475812591612339,0.20136286318302155,0.16651739180088043,-0.0017607491463422775,0.05217043682932854,-0.17799854278564453,0.07653098553419113,-0.13058646023273468,0.08274103701114655,-0.15869037806987762,0.029708124697208405,-0.05901193246245384,0.1121421754360199,0.13667814433574677,-0.07668087631464005,-0.0373152457177639,-0.0025076998863369226,-0.10288241505622864,0.15933182835578918,0.07055743783712387,-0.13627980649471283,0.033819958567619324,-0.048750001937150955,-0.2662599980831146,-0.13274046778678894,-0.18433703482151031,-0.010857753455638885,-0.0759648010134697,-0.04801097512245178,0.04820949211716652,-0.00456163240596652,-0.151820570230484,0.15973342955112457,0.05402904748916626,-0.26903632283210754,0.2544775605201721,-0.15034402906894684,-0.08501141518354416,0.13890668749809265,-0.34680604934692383,-0.05935975909233093,0.08574498444795609,-0.14772020280361176,0.16858993470668793,-0.15629363059997559,0.19508473575115204,0.14484094083309174,0.16986055672168732,-0.054964423179626465,-0.08803568035364151,-0.14082366228103638,-0.1406383216381073,-0.11278055608272552,0.16013121604919434,0.07771901041269302,0.3864259719848633,0.2699245810508728,0.08077014237642288,-0.11818203330039978,-0.025040578097105026,0.12187217175960541,0.1575443595647812,-0.05847134813666344,0.2357553243637085,0.049395833164453506,0.044171493500471115,0.039951764047145844,0.13821202516555786,-0.05468485504388809,0.26907819509506226,-0.06915633380413055,-0.21338312327861786,-0.16975368559360504,0.0010321674635633826,0.06583242118358612,-0.03787801042199135,0.14209680259227753,0.051369089633226395,-0.013267304748296738,-0.03946510702371597,-0.07923170924186707,-0.07776469737291336,-0.10290901362895966,0.11856744438409805,0.10025076568126678,-0.09189389646053314,0.12010384351015091,0.08862598240375519,0.1398673951625824,0.19359737634658813,-0.0484950989484787,-0.15018555521965027,0.00939384289085865,0.05245296284556389,0.10759823769330978,-0.21651096642017365,-0.09962127357721329,0.2199438363313675,-0.011530941352248192,-0.11098289489746094,0.04165622591972351,-0.07705141603946686,-0.11386950314044952,-0.0699513852596283,-0.03214608132839203,-0.11493111401796341,-0.1581929624080658,0.04708525538444519,-0.014100901782512665,0.22603632509708405,-0.10283206403255463,0.012673023156821728,-0.030264845117926598,-0.13482773303985596,0.10016005486249924,0.19983959197998047,0.17313581705093384,-0.014431728050112724,0.062179338186979294,0.08382356911897659,-0.04210304468870163,-0.00621143588796258,0.005235093180090189,0.13806582987308502,-0.10172721743583679,0.2895808219909668,0.0010859554167836905,-0.017214279621839523,-0.029585812240839005,-0.0710756778717041,-0.2884185016155243,0.185096874833107,0.011021156795322895,-0.021639129146933556,0.052119750529527664,0.015543037094175816,-0.018270207569003105,0.10986971855163574,0.2732903063297272,0.03020508959889412,0.15658454596996307,-0.1567736268043518,-0.20140154659748077,-0.15922996401786804,-0.07432547956705093,0.08374231308698654,0.04752054065465927,0.06381058692932129,-0.21147151291370392,-0.010336889885365963,0.01289357990026474,-0.036662884056568146,0.0976686179637909,0.18331019580364227,-0.16918335855007172,0.012069587595760822,0.04352958872914314,0.1589808613061905,-0.1104377806186676,-0.0310318972915411,-0.3259636163711548,-0.169357568025589,0.11804139614105225,0.15302260220050812,-0.04363749548792839,-0.15842226147651672,-0.1591053009033203,-0.14379313588142395,0.029776165261864662,0.15554594993591309,-0.09990882128477097,-0.11701321601867676,0.11557137966156006,0.21612532436847687,-0.006369540002197027,-0.1053490936756134,0.1349061131477356,0.14040549099445343,-0.06890866905450821,0.17346158623695374,0.09898808598518372,-0.18087652325630188,-0.09840304404497147,-0.030992761254310608,0.09821010380983353,0.1934908926486969,0.36612096428871155,0.19844038784503937,-0.10175088047981262,0.058027733117341995,0.09092636406421661,0.10533080250024796,0.06466827541589737,-0.13788406550884247,0.04483868181705475,-0.11529557406902313,0.1565113663673401,0.10363182425498962,0.14734213054180145,-0.15034325420856476,-0.09693901240825653,-0.016776476055383682,0.204883873462677,-0.026555676013231277,0.03152456134557724,-0.06425606459379196,0.010082117281854153,-0.043579474091529846,0.08695758134126663,-0.0760749951004982,-0.14844496548175812,0.014119964092969894,0.07680390030145645,-0.010591349564492702,0.13293348252773285,-0.023118820041418076,-0.05906601622700691,-0.24515816569328308,0.09861987829208374,0.039842069149017334,-0.05156100541353226,-0.12582054734230042,-0.13414689898490906,0.14740929007530212,0.06304536759853363,-0.12014619261026382,0.23824284970760345,-0.13094091415405273,-0.09005270153284073,0.22913043200969696,0.14895139634609222,-0.020783357322216034,-0.026454707607626915,-0.46401283144950867,0.08194030076265335,-0.023726819083094597,-0.21122153103351593,-0.05312195420265198,0.02473144792020321,-0.09207610785961151,0.006513023283332586,0.08262621611356735,-0.05745130404829979,-0.03469298779964447,-0.14245420694351196,0.05172158405184746,-0.1827794760465622,0.14377300441265106,0.1280561089515686,0.014118135906755924,0.13248051702976227,-0.15961717069149017,-0.11297336220741272,-0.1134282797574997,-0.20676712691783905,0.054396819323301315,0.05134820193052292,-0.06446812301874161,0.009869586676359177,-0.0004756517009809613,-0.27192550897598267,-0.12122374773025513,0.00524670397862792,0.2559913396835327,-0.15572860836982727,-0.014129227958619595,-0.2229156345129013,0.027204841375350952,-0.034586478024721146,-0.06836741417646408,0.16805121302604675,-0.021214313805103302,-0.025508176535367966,0.01781049370765686,0.10792464762926102,0.038034047931432724,0.13641607761383057,0.0444117970764637,-0.04705725610256195,0.04759322479367256,0.0790034756064415,-0.03651699796319008,-0.011959508992731571,0.008726346306502819,-0.10532405972480774,-0.052087608724832535,-0.06346504390239716,-0.12209747731685638,-0.06859475374221802,0.2085573673248291,0.03808632865548134,0.1145692989230156,0.022415630519390106,-0.14097413420677185,0.01831180788576603,0.07040422409772873,-0.12534356117248535,-0.24988295137882233,-0.20918256044387817,-0.17362070083618164,0.16070403158664703,-0.03951560705900192,0.23055607080459595,-0.05171830579638481,0.04585478454828262,-0.2114974856376648,-0.054443176835775375,0.12650223076343536,-0.024270417168736458,0.08525147289037704,-0.04053641855716705,0.30961036682128906,0.06295957416296005,-0.009709715843200684,-0.1740594059228897,-0.11302535980939865,-0.007634467910975218,-0.04261903092265129,0.019075142219662666,0.03701895847916603,0.28624221682548523,0.07624715566635132,-0.11801683157682419,-0.016600262373685837,-0.08587004989385605,-0.033134665340185165,0.02935178577899933,-0.12294991314411163,0.12215501070022583,0.023821193724870682,0.1815805584192276,0.07149145752191544,-0.06015825271606445,-0.07698278874158859,0.07946198433637619,0.12452703714370728,0.05543753132224083,-0.044343531131744385,0.18139196932315826,0.06063726544380188,0.007313706912100315,0.034371521323919296,0.394066721200943,0.381137877702713,0.438235342502594,-1.0064817667007446,-0.5820029377937317,0.18774020671844482,0.21973858773708344,0.2171248495578766,0.36952710151672363,0.17939911782741547,-0.8619056940078735,0.26608285307884216,-0.013998991809785366,-0.511258602142334,0.12221666425466537,-0.22298316657543182,-0.051478393375873566,-0.23581038415431976,0.1705089807510376,-0.2701919674873352,0.08606386929750443,0.23663492500782013,0.12559308111667633,-0.19001264870166779,-0.26021385192871094,0.10975442081689835,-0.06029431149363518,-0.07970209419727325,0.15734051167964935,-0.02145099639892578,0.28438034653663635,0.0005711766425520182,-0.08455988764762878,-0.19611023366451263,0.083558090031147,-0.1381332129240036,0.03153117746114731,-0.02046438865363598,0.1537538766860962,-0.03285977989435196,-0.23091427981853485,-0.21915505826473236,-0.11421888321638107,0.08370500802993774,-0.11781585216522217,0.07232008129358292,0.3621583580970764,0.23512014746665955,-0.08637909591197968,0.19352217018604279,-0.24819841980934143,-0.3136586844921112,0.009445549920201302,-0.1182761937379837,-0.2490801215171814,0.09512405842542648,0.24619248509407043,-0.260944128036499,-0.020295806229114532,-0.25227901339530945,-0.020444855093955994,0.06787575781345367,-0.015510404482483864,0.12219090014696121,-0.3359483778476715,-0.0841965600848198,-0.19552472233772278,0.2983540892601013,-0.021187087520956993,0.1933741569519043,0.28646594285964966,0.1356590837240219,-0.06630966067314148,-0.3104936480522156,0.11653127521276474,-0.6653643250465393,0.05841304734349251,0.07567853480577469,0.08278906345367432,-0.2881198227405548,0.3820159435272217,-0.07040814310312271,-0.10893893986940384,0.10506826639175415,0.12780040502548218,-0.06902487576007843,0.15341688692569733,-0.22142256796360016,-0.02641964517533779,0.018168438225984573,0.11885353177785873,0.024838833138346672,-0.10737849026918411,-0.1141211986541748,-0.05903662368655205,-0.16972802579402924,-0.3372313976287842,0.12894728779792786,0.08210095763206482,0.16900376975536346,-0.20023193955421448,0.20811782777309418,-0.12626227736473083,-0.024674363434314728,0.11040075123310089,0.2487863004207611,-0.11846873164176941,0.2141622006893158,-0.09217751026153564,0.06257420033216476,-0.28501272201538086,0.12390550225973129,0.027523502707481384,-0.34225597977638245,0.11573392152786255,0.23663544654846191,-0.17382165789604187,-0.22259989380836487,0.23366403579711914,0.19941748678684235,-0.47475534677505493,0.1696646362543106,-0.06923465430736542,0.3108663856983185,0.20332495868206024,-0.09847016632556915,-0.1413051337003708,-0.08824817836284637,0.028551505878567696,0.21913494169712067,-0.3888667821884155,-0.15372410416603088,0.34940677881240845,-0.1561691015958786,-0.11330258846282959,-0.02041006088256836,0.06555508077144623,0.05608593299984932,0.11401624977588654,-0.07702449709177017,-0.093568816781044,-0.02361765317618847,0.4258531928062439,0.011342001147568226,-0.30212345719337463,0.07366417348384857,-0.12071897089481354,-0.12680299580097198,0.11936642974615097,0.1676677167415619,-0.20668379962444305,-0.11598104983568192,0.10399667173624039,-0.07139658182859421,-0.012945353984832764,-0.1617528796195984,0.2743578851222992,0.15510986745357513,0.027559004724025726,0.026972254738211632,0.019704198464751244,0.3076589107513428,-0.11117488145828247,-0.062124136835336685,-0.15601907670497894,0.0737176388502121,-0.1143423467874527,-0.0058370232582092285,-0.2567962408065796,-0.21810677647590637,-0.04038757085800171,-0.3528367578983307,0.22536271810531616,-0.14359910786151886,0.24737440049648285,0.05868370831012726,-0.15254440903663635,0.13432353734970093,-0.20872607827186584,-0.15318211913108826,-0.15735143423080444,0.10512159764766693,-0.11285680532455444,-0.08358442038297653,0.36295074224472046,0.025397736579179764,-0.08096016943454742,0.11138389259576797,-0.13050784170627594,0.030230924487113953,0.019484061747789383,-0.15895646810531616,-0.0716758444905281,0.145048588514328,-0.29059821367263794,-0.24444496631622314,-0.04815259203314781,-0.05953139066696167,0.19611582159996033,0.005216511897742748,-0.07499489933252335,0.06543120741844177,0.3903811573982239,-0.16913390159606934,-0.19798821210861206,0.37409818172454834,-0.062053535133600235,-0.17113488912582397,0.11024613678455353,0.19393320381641388,0.28658002614974976,0.33164113759994507,-0.1600746363401413,-0.06908582895994186,-0.43856650590896606,0.1005462259054184,0.27168023586273193,0.17738127708435059,-0.24084152281284332,0.10439284145832062,-0.2503863573074341,0.05773508921265602,-0.0950356125831604,-0.20450186729431152,0.051207464188337326,-0.014072966761887074,0.11288385093212128,0.20113207399845123,0.04474440962076187,0.11297617107629776,-0.043759655207395554,0.036488037556409836,0.012911573983728886,0.2634666860103607,0.21262268722057343,-0.007343808654695749,-0.2934317886829376,-0.24163205921649933,-0.0018220548518002033,0.0038165489677339792,0.1971285492181778,0.0024757760111242533,0.29006147384643555,0.22311893105506897,-0.2916361093521118,-0.17324863374233246,-0.08832919597625732,0.14582090079784393,-0.08214119076728821,0.07614915817975998,-0.17847852408885956,0.1539255678653717,0.031418606638908386,0.031212959438562393,-0.09917950630187988,0.07310320436954498,0.16336268186569214,0.10527477413415909,0.061503417789936066,0.16870644688606262,-0.11878402531147003,-0.5233239531517029,0.15997359156608582,-0.09966174513101578,-0.3529268205165863,0.05128180980682373,-0.14946691691875458,0.061000075191259384,0.1242649182677269,-0.0683068335056305,0.20353363454341888,0.05302336812019348,-0.1605105698108673,0.0361095629632473,0.09533627331256866,0.012462853454053402,0.07757078111171722,0.007316001690924168,-0.011240617372095585,0.08339811116456985,-0.20436784625053406,0.17173482477664948,0.09760303795337677,0.059037502855062485,0.013015964068472385,-0.18155881762504578,-0.04818015173077583,0.0318666473031044,0.040920283645391464,0.007095767185091972,0.03071659803390503,-0.07589981704950333,0.007816723547875881,-0.13283593952655792,0.04107438400387764,0.06016808748245239,-0.09682796150445938,-0.005144122056663036,-0.07452874630689621,-0.14150361716747284,-0.12641477584838867,-0.01631084270775318,-0.059802014380693436,0.06841824948787689,-0.022889643907546997,-0.0028675440698862076,0.08005271106958389,0.006450922228395939,0.04000365734100342,0.2257343977689743,0.26298508048057556,-0.13556857407093048,-0.0845547616481781,-0.22793203592300415,0.12082307040691376,0.1495390385389328,-0.04446152225136757,-0.13771124184131622,0.014719993807375431,0.023776983842253685,-0.10197680443525314,0.2303266078233719,-0.0647837370634079,0.0277728158980608,0.023315610364079475,0.1780230849981308,0.18484894931316376,-0.12825439870357513,-0.1529662013053894,0.07095570862293243,0.00389779731631279,-0.14565683901309967,0.05378112196922302,-0.13142897188663483,0.007897979579865932,0.034633178263902664,-0.027910141274333,0.03819446638226509,0.1212012767791748,0.04322288557887077,-0.1742294430732727,-0.03122156485915184,-0.1320280283689499,-0.22941607236862183,-0.08687960356473923,-0.18048955500125885,0.19751715660095215,0.01646319217979908,0.1727544367313385,-0.16032244265079498,0.017717180773615837,0.0637783631682396,0.06509259343147278,0.060873884707689285,-0.1574467271566391,0.06366275250911713,0.17162704467773438,-0.20474818348884583,-0.012444570660591125,-0.2112317681312561,-0.04864072799682617,-0.17849723994731903,0.08456314355134964,-0.1125713586807251,0.21993142366409302,-0.04380093142390251,0.11332062631845474,-0.303658664226532,-0.007537525147199631,0.028555136173963547,0.025534166023135185,-0.16650131344795227,-0.0635257437825203,-0.26809805631637573,-0.04424821212887764,0.09319236874580383,-0.2780238687992096,0.03615739196538925,0.1660839319229126,-0.06289241462945938,-0.008124833926558495,-0.0499555841088295,-0.15343134105205536,-0.06171652674674988,-0.15040814876556396,-0.23131367564201355,0.08948936313390732,-0.09783874452114105,0.18050390481948853,0.08208759874105453,-0.06843134760856628,0.13618628680706024,0.05253424495458603,-0.01650710217654705,-0.013935666531324387,-0.10754076391458511,-0.23647665977478027,0.01247272826731205,-0.18275928497314453,0.09875192493200302,-0.07761047780513763,0.15344835817813873,-0.12580953538417816,-0.0726240947842598,-0.09015604108572006,0.003959545865654945,-0.11525437980890274,-0.13023783266544342,0.013482754118740559,0.09446273744106293,0.00855991616845131,0.18097922205924988,-0.3046116530895233,0.03265990689396858,0.02747628279030323,0.37364616990089417,0.10237331688404083,0.17407841980457306,-0.015817515552043915,0.10194562375545502,-0.1159726232290268,0.06263861805200577,0.02005443349480629,0.024767333641648293,0.33939507603645325,0.16395583748817444,-0.10626035183668137,0.028022916987538338,0.08061588555574417,-0.08782447129487991,-0.047394413501024246,0.047113560140132904,-0.0012498794822022319,-0.18852245807647705,0.09463021904230118,-0.12890344858169556,0.03241024911403656,-0.059676945209503174,0.038884587585926056,0.38878369331359863,-0.0030180728062987328,0.1573546677827835,-0.2730801999568939,0.0333147868514061,-0.09267880022525787,0.12920965254306793,-0.0026524756103754044,-0.07615287601947784,-0.17413479089736938,0.12923158705234528,0.007276160176843405,-0.13547486066818237,0.11962729692459106,0.2588987350463867,0.027469631284475327,-0.10406544804573059,-0.018803464248776436,0.17598611116409302,0.06829473376274109,0.01120147667825222,-0.11110168695449829,0.012035558000206947,-0.08295855671167374,0.3275223970413208,-0.032469816505908966,-0.15066732466220856,-0.3204043507575989,-0.05695932358503342,-0.00414453586563468,0.17908112704753876,-0.009564985521137714,-0.1750524342060089,0.27496063709259033,-0.08415043354034424,-0.005370095372200012,-0.017227653414011,0.12653310596942902,-0.052137698978185654,0.0468672476708889,0.048794254660606384,-0.06917522847652435,0.0026805149391293526,0.16518133878707886,-0.18509629368782043,0.014068112708628178,-0.3308789134025574,0.12771259248256683,-0.014446353539824486,0.07798559218645096,-0.19505903124809265,0.10442929714918137,-0.043641913682222366,0.1378367394208908,-0.06308107823133469,0.029603950679302216,0.25832274556159973,0.28920993208885193,0.11538384854793549,0.09546329081058502,-0.019672922790050507,-0.17793391644954681,-0.023013237863779068,0.14251506328582764,-0.21858346462249756,-0.017419831827282906,-0.5757380127906799,0.26076656579971313,-0.05204027518630028,0.21237437427043915,-0.007738844025880098,-0.010602152906358242,-0.17332208156585693,-0.18239040672779083,0.18259286880493164,-0.041710469871759415,-0.033999253064394,-0.12035031616687775,-0.10224657505750656,0.016235850751399994,0.09041735529899597,-0.16415217518806458,-0.0802353098988533,0.0604281984269619,-0.12009335309267044,0.08168452978134155,0.07345356792211533,-0.005697378423064947,0.12099414318799973,-0.13399039208889008,0.17011778056621552,-0.10422228276729584,0.05767529085278511,-0.058068957179784775,-0.005058488342911005,0.1310531497001648,-0.2333284169435501,-0.04259207844734192,-0.09647874534130096,0.14227910339832306,-0.06802263855934143,0.04022420197725296,-0.15892760455608368,0.11401434987783432,-0.18942296504974365,-0.005242372862994671,-0.021375704556703568,0.21977010369300842,-0.0410509929060936,-0.12064526230096817,-0.17026840150356293,0.0683683231472969,0.005805755499750376,-0.03447907045483589,-0.36053410172462463,0.01397897768765688,-0.16629035770893097,0.23839035630226135,-0.07944352179765701,0.15974344313144684,-0.20679430663585663,0.007634097244590521,-0.11365990340709686,0.36276742815971375,-0.10698999464511871,0.11552703380584717,-0.23994159698486328,-0.1749320924282074,0.003037684829905629,-0.2774786651134491,-0.08697209507226944,0.04126879200339317,0.08225901424884796,-0.1489555984735489,0.1695287823677063,0.0597415417432785,0.0023316999431699514,-0.11472345143556595,0.08959649503231049,-0.054469674825668335,0.08521120995283127,-0.09494172781705856,-0.019867222756147385,-0.008356540463864803,-0.22631138563156128,0.0751432329416275,-0.10325092822313309,0.11491245031356812,0.040763914585113525,0.09231725335121155,0.08571972697973251,-0.13999177515506744,0.0041083674877882,0.012499605305492878,0.01674945093691349,0.03283347189426422,0.13012583553791046,0.12545712292194366,-0.13117894530296326,-0.1092105358839035,-0.053412389010190964,-0.0696835070848465,-0.2833716869354248,0.0036429690662771463,0.0032966630533337593,0.13025735318660736,-0.0165109783411026,0.008307995274662971,-0.02214580774307251,0.008771874941885471,-0.08127449452877045,0.08260353654623032,-0.010615344159305096,-0.022357746958732605,0.07304177433252335,0.1391359567642212,0.07386187463998795,0.02503054216504097,0.03492250666022301,0.0024439620319753885,-0.13869042694568634,0.0667046532034874,0.0754798874258995,-0.10670631378889084,-0.06025409698486328,0.10521073639392853,0.19875642657279968,0.2902645170688629,-0.16400349140167236,-0.014808805659413338,0.2925546169281006,-0.03296840190887451,-0.11975975334644318,0.03379038721323013,0.09384606033563614,0.08334619551897049,-0.3039122223854065,-0.1699885129928589,-0.09823961555957794,0.12742796540260315,0.12026289105415344,-0.24990950524806976,-0.33550775051116943,-0.06791108846664429,0.06040593609213829,-0.031083498150110245,0.21692568063735962,-0.15474481880664825,-0.0718315839767456,-0.05565591901540756,0.15524767339229584,0.16943424940109253,0.09662246704101562,0.11484445631504059,-0.08624652028083801,-0.1520124077796936,-0.05144980549812317,0.031955573707818985,0.030888983979821205,0.12396448105573654,0.009565086103975773,-0.024938546121120453,-0.055681660771369934,0.020281769335269928,-0.06600900739431381,-0.0009910550434142351,-0.04975616931915283,-0.14937937259674072,-0.04217447340488434,0.04684409499168396,0.036691296845674515,0.11025089770555496,0.22739125788211823,0.026638785377144814,-0.22550156712532043,-0.1156931221485138,-0.021461552008986473,-0.08428206294775009,0.17541134357452393,-0.08976689726114273,-0.01209668256342411,-0.025933826342225075,0.10081356763839722,-0.36429962515830994,-0.187229186296463,0.013246872462332249,-0.17500822246074677,0.19341595470905304,0.09282030165195465,-0.3099970817565918,0.1486046463251114,-0.09353102743625641,-0.2521235942840576,0.2733401656150818,0.14167940616607666,-0.07073383778333664,-0.14165551960468292,-0.0012082880130037665,-0.01974482461810112,0.03440949320793152,0.021709658205509186,-0.19649629294872284,-0.09600212424993515,-0.19674226641654968,0.02348455972969532,0.08534221351146698,0.017895173281431198,-0.00701584666967392,-0.4628561735153198,0.12752987444400787,0.1401236653327942,0.06808633357286453,-0.15666820108890533,0.1545749008655548,0.21950405836105347,-0.1452862173318863,-0.07630781829357147,-0.0004716149705927819,-0.22224944829940796,0.02814789116382599,0.20022141933441162,0.04847194626927376,0.11713387072086334,0.11555852741003036,-0.18592414259910583,0.10060104727745056,-0.021003898233175278,0.03476250171661377,0.17216376960277557,-0.1694912612438202,0.1951870173215866,-0.021287452429533005,-0.08146324753761292,-0.08142869919538498,0.13293376564979553,-0.0927291065454483,-0.0616186186671257,-0.3471088707447052,-0.09725244343280792,-0.13941285014152527,-0.009277296252548695,-0.1386294960975647,0.17963220179080963,0.07093620300292969,0.08152521401643753,-0.011405512690544128,0.3925873041152954,0.13349691033363342,0.019159909337759018,-0.19680115580558777,-0.04509252309799194,0.0176116731017828,0.37269631028175354,-0.09832223504781723,0.21832792460918427,-0.03621508553624153,0.10662391781806946,0.06371782720088959,-0.006110727321356535,-0.17086899280548096,-0.10677211731672287,0.23248551785945892,0.04146445170044899,-0.07630221545696259,0.0020246070344001055,-0.02484188601374626,-0.2322305291891098,0.15942320227622986,-0.1221044510602951,-0.30212536454200745,0.18492934107780457,-0.007276823278516531,-0.002507984172552824,0.3905790448188782,0.2788637578487396,0.2906961739063263,-0.15611532330513,-0.03615022450685501,0.017775215208530426,0.12153152376413345,-0.11872868239879608,-0.048232026398181915,0.030498893931508064,0.04287244752049446,-0.13845166563987732,-0.22332055866718292,-0.22717635333538055,-0.03227865323424339,0.23787634074687958,-0.008023944683372974,-0.19714128971099854,-0.15651296079158783,-0.03761022537946701,0.44997426867485046,-0.40336117148399353,-0.08722718805074692,-0.2635129988193512,0.16411645710468292,0.04299435019493103,0.38116011023521423,-0.1985660046339035,-0.04911088943481445,0.5048013925552368,0.5488277077674866,-0.17629875242710114,0.030197447165846825,-0.07790590822696686,0.07718269526958466,0.09774049371480942,-0.15873315930366516,-0.05828545242547989,0.025930367410182953,